{"learner":{"attributes":{"best_iteration":"55","best_ntree_limit":"56","best_score":"0.0"},"feature_names":[],"feature_types":[],"gradient_booster":{"model":{"gbtree_model_param":{"num_trees":"264","size_leaf_vector":"0"},"tree_info":[0,1,2,3,0,1,2,3,0,1,2,3,0,1,2,3,0,1,2,3,0,1,2,3,0,1,2,3,0,1,2,3,0,1,2,3,0,1,2,3,0,1,2,3,0,1,2,3,0,1,2,3,0,1,2,3,0,1,2,3,0,1,2,3,0,1,2,3,0,1,2,3,0,1,2,3,0,1,2,3,0,1,2,3,0,1,2,3,0,1,2,3,0,1,2,3,0,1,2,3,0,1,2,3,0,1,2,3,0,1,2,3,0,1,2,3,0,1,2,3,0,1,2,3,0,1,2,3,0,1,2,3,0,1,2,3,0,1,2,3,0,1,2,3,0,1,2,3,0,1,2,3,0,1,2,3,0,1,2,3,0,1,2,3,0,1,2,3,0,1,2,3,0,1,2,3,0,1,2,3,0,1,2,3,0,1,2,3,0,1,2,3,0,1,2,3,0,1,2,3,0,1,2,3,0,1,2,3,0,1,2,3,0,1,2,3,0,1,2,3,0,1,2,3,0,1,2,3,0,1,2,3,0,1,2,3,0,1,2,3,0,1,2,3,0,1,2,3,0,1,2,3,0,1,2,3,0,1,2,3,0,1,2,3],"trees":[{"base_weights":[3.564046E-3,8.163367E-1,-6.0981554E-1,1.2897561E0,1.22349106E-1,-3.0242118E-1,-6.5817285E-1,8.980044E-1,1.6822377E0,-1.6852653E-2,1.293666E0,-4.3166226E-1,5.1655626E-1,4.390244E-1,-6.610551E-1,3.4582132E-1,1.2387792E0,1.0458716E0,1.8819624E0,-1.22531645E-1,9.131403E-1,1.6E-2,1.6633663E0,-1.2777053E-1,-6.3380283E-1,1.1472081E0,-6.1946905E-1,-4.6153846E-1,1.3043479E0,-6.639266E-1,-3.902439E-1],"categories":[],"categories_nodes":[],"categories_segments":[],"categories_sizes":[],"default_left":[true,true,true,true,true,true,true,true,true,true,true,true,true,true,true,false,false,false,false,false,false,false,false,false,false,false,false,false,false,false,false],"id":0,"left_children":[1,3,5,7,9,11,13,15,17,19,21,23,25,27,29,-1,-1,-1,-1,-1,-1,-1,-1,-1,-1,-1,-1,-1,-1,-1,-1],"loss_changes":[1.7489957E3,4.9557886E2,2.952118E1,1.3638855E2,9.997106E1,2.9184958E1,5.7507935E0,8.443628E1,5.4828735E1,5.405572E1,3.0735413E1,1.4469978E1,2.7756136E1,4.5958076E0,1.0804443E0,0E0,0E0,0E0,0E0,0E0,0E0,0E0,0E0,0E0,0E0,0E0,0E0,0E0,0E0,0E0,0E0],"parents":[2147483647,0,0,1,1,2,2,3,3,4,4,5,5,6,6,7,7,8,8,9,9,10,10,11,11,12,12,13,13,14,14],"right_children":[2,4,6,8,10,12,14,16,18,20,22,24,26,28,30,-1,-1,-1,-1,-1,-1,-1,-1,-1,-1,-1,-1,-1,-1,-1,-1],"split_conditions":[4.182873E0,8.707417E-2,7.141085E0,1.2062321E1,4.1605286E1,4.0048957E0,1.5E0,1.0230033E0,3.8027756E0,2.0469253E0,4.5E0,5.4349476E-1,1.5927668E-1,1.767767E1,1.5448933E0,1.037464E-1,3.7163377E-1,3.137615E-1,5.645887E-1,-3.6759496E-2,2.739421E-1,4.8E-3,4.990099E-1,-3.833116E-2,-1.9014086E-1,3.4416243E-1,-1.8584073E-1,-1.3846155E-1,3.9130437E-1,-1.99178E-1,-1.1707317E-1],"split_indices":[1,6,1,11,11,4,0,3,31,3,31,5,6,1,7,0,0,0,0,0,0,0,0,0,0,0,0,0,0,0,0],"split_type":[0,0,0,0,0,0,0,0,0,0,0,0,0,0,0,0,0,0,0,0,0,0,0,0,0,0,0,0,0,0,0],"sum_hessian":[3.50625E3,1.507875E3,1.998375E3,8.95875E2,6.12E2,2.72625E2,1.72575E3,4.5E2,4.45875E2,5.47875E2,6.4125E1,2.35875E2,3.675E1,4.125E0,1.721625E3,1.725E2,2.775E2,1.08E2,3.37875E2,4.9275E2,5.5125E1,1.4625E1,4.95E1,9.4875E1,1.41E2,2.3625E1,1.3125E1,2.25E0,1.875E0,1.702125E3,1.95E1],"tree_param":{"num_deleted":"0","num_feature":"40","num_nodes":"31","size_leaf_vector":"0"}},{"base_weights":[2.9937986E-3,8.245116E-1,-6.086524E-1,1.3042985E0,1.3814057E-1,-3.0226246E-1,-6.570647E-1,9.170818E-1,1.6641054E0,-5.6688216E-2,9.859155E-1,-4.9381262E-1,3.2629558E-1,4.390244E-1,-6.599293E-1,3.743627E-1,1.2773438E0,1.0283768E0,1.8614218E0,-1.56013E-1,1.0295858E0,2.0273973E-1,1.4770318E0,-1.3127413E-1,-6.4869416E-1,3.6553524E-2,1.0684931E0,-4.6153846E-1,1.3043479E0,-6.6277117E-1,-4E-1],"categories":[],"categories_nodes":[],"categories_segments":[],"categories_sizes":[],"default_left":[true,true,true,true,true,true,true,true,true,true,true,true,true,true,true,false,false,false,false,false,false,false,false,false,false,false,false,false,false,false,false],"id":1,"left_children":[1,3,5,7,9,11,13,15,17,19,21,23,25,27,29,-1,-1,-1,-1,-1,-1,-1,-1,-1,-1,-1,-1,-1,-1,-1,-1],"loss_changes":[1.7628186E3,4.9288202E2,2.9630615E1,1.21234985E2,1.0198702E2,3.3421738E1,5.739685E0,8.2935974E1,5.522351E1,5.4404305E1,4.407727E1,1.1825775E1,1.3965805E1,4.5958076E0,1.0140381E0,0E0,0E0,0E0,0E0,0E0,0E0,0E0,0E0,0E0,0E0,0E0,0E0,0E0,0E0,0E0,0E0],"parents":[2147483647,0,0,1,1,2,2,3,3,4,4,5,5,6,6,7,7,8,8,9,9,10,10,11,11,12,12,13,13,14,14],"right_children":[2,4,6,8,10,12,14,16,18,20,22,24,26,28,30,-1,-1,-1,-1,-1,-1,-1,-1,-1,-1,-1,-1,-1,-1,-1,-1],"split_conditions":[4.182873E0,8.707417E-2,7.141085E0,1.0700237E1,3.1866886E1,3.3087168E0,1.5E0,1.0230033E0,3.3839145E0,2.1112924E0,7.4406586E0,3.572459E-1,1.2128963E0,1.767767E1,1.5448933E0,1.12308815E-1,3.8320315E-1,3.0851305E-1,5.5842656E-1,-4.68039E-2,3.0887577E-1,6.082192E-2,4.4310957E-1,-3.938224E-2,-1.9460826E-1,1.0966058E-2,3.2054794E-1,-1.3846155E-1,3.9130437E-1,-1.9883136E-1,-1.20000005E-1],"split_indices":[11,16,11,1,31,14,10,13,21,13,1,15,19,11,17,0,0,0,0,0,0,0,0,0,0,0,0,0,0,0,0],"split_type":[0,0,0,0,0,0,0,0,0,0,0,0,0,0,0,0,0,0,0,0,0,0,0,0,0,0,0,0,0,0,0],"sum_hessian":[3.50625E3,1.49625E3,2.01E3,8.80125E2,6.16125E2,2.7525E2,1.73475E3,4.25625E2,4.545E2,5.0175E2,1.14375E2,2.11125E2,6.4125E1,4.125E0,1.730625E3,1.70625E2,2.55E2,1.09125E2,3.45375E2,4.605E2,4.125E1,4.4625E1,6.975E1,6.375E1,1.47375E2,4.6875E1,1.725E1,2.25E0,1.875E0,1.710375E3,2.025E1],"tree_param":{"num_deleted":"0","num_feature":"40","num_nodes":"31","size_leaf_vector":"0"}},{"base_weights":[-2.1384275E-3,8.2149744E-1,-6.108185E-1,1.2968397E0,1.250258E-1,-3.0783078E-1,-6.588151E-1,8.6255926E-1,1.604056E0,5.563652E-1,-2.7438542E-1,-4.9822906E-1,2.9850745E-1,3.448276E-1,-6.605293E-1,3.6486486E-1,1.1901013E0,9.5498675E-1,1.8435532E0,-7.077856E-2,1.0118343E0,-3.480433E-1,1.125E0,-7.253886E-2,-6.200608E-1,5.6074765E-2,1.1724138E0,-4E-1,1.0588236E0,-6.627839E-1,-4.5454547E-1],"categories":[],"categories_nodes":[],"categories_segments":[],"categories_sizes":[],"default_left":[true,true,true,true,true,true,true,true,true,true,true,true,true,true,true,false,false,false,false,false,false,false,false,false,false,false,false,false,false,false,false],"id":2,"left_children":[1,3,5,7,9,11,13,15,17,19,21,23,25,27,29,-1,-1,-1,-1,-1,-1,-1,-1,-1,-1,-1,-1,-1,-1,-1,-1],"loss_changes":[1.7587941E3,4.9341058E2,2.9134644E1,1.1682471E2,1.0453389E2,3.2213783E1,3.2224731E0,5.975934E1,7.872388E1,8.337272E1,3.2886185E1,1.0936924E1,1.4129109E1,2.3513184E0,5.059204E-1,0E0,0E0,0E0,0E0,0E0,0E0,0E0,0E0,0E0,0E0,0E0,0E0,0E0,0E0,0E0,0E0],"parents":[2147483647,0,0,1,1,2,2,3,3,4,4,5,5,6,6,7,7,8,8,9,9,10,10,11,11,12,12,13,13,14,14],"right_children":[2,4,6,8,10,12,14,16,18,20,22,24,26,28,30,-1,-1,-1,-1,-1,-1,-1,-1,-1,-1,-1,-1,-1,-1,-1,-1],"split_conditions":[4.182873E0,8.707417E-2,7.141085E0,6.555664E0,7.5237286E-1,3.3087168E0,1.5E0,1.0232725E0,3.8027756E0,4.736068E0,2.1202466E0,5.765768E-2,1.3496366E0,1.3165402E0,1.5448933E0,1.0945946E-1,3.570304E-1,2.8649604E-1,5.5306596E-1,-2.123357E-2,3.035503E-1,-1.04412995E-1,3.375E-1,-2.176166E-2,-1.8601824E-1,1.682243E-2,3.5172415E-1,-1.20000005E-1,3.176471E-1,-1.9883518E-1,-1.3636364E-1],"split_indices":[21,26,21,11,25,24,20,23,1,1,23,26,29,17,27,0,0,0,0,0,0,0,0,0,0,0,0,0,0,0,0],"split_type":[0,0,0,0,0,0,0,0,0,0,0,0,0,0,0,0,0,0,0,0,0,0,0,0,0,0,0,0,0,0,0],"sum_hessian":[3.50625E3,1.489875E3,2.016375E3,8.85E2,6.04875E2,2.7675E2,1.739625E3,3.6825E2,5.1675E2,2.90625E2,3.1425E2,2.1075E2,6.6E1,2.625E0,1.737E3,1.47E2,2.2125E2,1.40625E2,3.76125E2,1.22625E2,1.68E2,2.9925E2,1.5E1,4.725E1,1.635E2,5.25E1,1.35E1,1.5E0,1.125E0,1.716E3,2.1E1],"tree_param":{"num_deleted":"0","num_feature":"40","num_nodes":"31","size_leaf_vector":"0"}},{"base_weights":[-4.419417E-3,8.1233805E-1,-6.1119044E-1,1.2835652E0,1.3685279E-1,-3.1215972E-1,-6.5822965E-1,8.162556E-1,1.6033533E0,-4.7204968E-2,9.5154184E-1,-4.8622754E-1,2.2878228E-1,4.390244E-1,-6.610927E-1,2.837838E-1,1.1826189E0,1.0538243E0,1.8787441E0,-1.944778E-1,6.533524E-1,1.4953618E0,1.5384616E-1,2.2727273E-1,-5.672437E-1,5.635359E-1,-4.2553192E-1,-4.6153846E-1,1.3043479E0,-6.63941E-1,-4.2162162E-1],"categories":[],"categories_nodes":[],"categories_segments":[],"categories_sizes":[],"default_left":[true,true,true,true,true,true,true,true,true,true,true,true,true,true,true,false,false,false,false,false,false,false,false,false,false,false,false,false,false,false,false],"id":3,"left_children":[1,3,5,7,9,11,13,15,17,19,21,23,25,27,29,-1,-1,-1,-1,-1,-1,-1,-1,-1,-1,-1,-1,-1,-1,-1,-1],"loss_changes":[1.7386362E3,4.7581268E2,2.8108032E1,1.3031055E2,9.235779E1,2.6052488E1,5.7512207E0,6.986812E1,7.699829E1,5.2036007E1,4.900657E1,1.2195721E1,1.5079359E1,4.5958076E0,9.0301514E-1,0E0,0E0,0E0,0E0,0E0,0E0,0E0,0E0,0E0,0E0,0E0,0E0,0E0,0E0,0E0,0E0],"parents":[2147483647,0,0,1,1,2,2,3,3,4,4,5,5,6,6,7,7,8,8,9,9,10,10,11,11,12,12,13,13,14,14],"right_children":[2,4,6,8,10,12,14,16,18,20,22,24,26,28,30,-1,-1,-1,-1,-1,-1,-1,-1,-1,-1,-1,-1,-1,-1,-1,-1],"split_conditions":[4.182873E0,8.707417E-2,7.141085E0,6.555664E0,3.1764444E1,3.3087168E0,1.5E0,1.0232725E0,5.5210094E0,3.89304E0,7.111407E-1,3.0811388E0,1.5814199E-1,1.767767E1,1.5448933E0,8.513514E-2,3.5478568E-1,3.161473E-1,5.6362325E-1,-5.834334E-2,1.9600572E-1,4.4860855E-1,4.615385E-2,6.818182E-2,-1.7017311E-1,1.6906078E-1,-1.2765959E-1,-1.3846155E-1,3.9130437E-1,-1.9918232E-1,-1.264865E-1],"split_indices":[31,36,31,21,1,34,30,33,11,34,35,30,36,31,37,0,0,0,0,0,0,0,0,0,0,0,0,0,0,0,0],"split_type":[0,0,0,0,0,0,0,0,0,0,0,0,0,0,0,0,0,0,0,0,0,0,0,0,0,0,0,0,0,0,0],"sum_hessian":[3.50625E3,1.494375E3,2.011875E3,8.7975E2,6.14625E2,2.745E2,1.737375E3,3.58875E2,5.20875E2,5.02125E2,1.125E2,2.0775E2,6.675E1,4.125E0,1.73325E3,1.47E2,2.11875E2,1.755E2,3.45375E2,4.155E2,8.6625E1,6.6375E1,4.6125E1,2.1E1,1.8675E2,4.425E1,2.25E1,2.25E0,1.875E0,1.711125E3,2.2125E1],"tree_param":{"num_deleted":"0","num_feature":"40","num_nodes":"31","size_leaf_vector":"0"}},{"base_weights":[2.4618877E-3,5.767178E-1,-5.6316876E-1,8.3169067E-1,4.339115E-2,-2.256283E-1,-6.1182314E-1,9.212431E-1,8.416595E-3,-1.2530652E-1,6.8386626E-1,2.9173955E-1,-4.762843E-1,-5.111918E-1,-6.212343E-1,-5.802956E-1,9.662959E-1,-3.5703138E-1,7.360714E-1,7.40924E-2,-4.6591756E-1,1.9325543E-2,1.0474716E0,7.2781265E-1,-3.3275193E-1,6.75542E-2,-5.633566E-1,-6.310337E-1,1.7121983E-1],"categories":[],"categories_nodes":[],"categories_segments":[],"categories_sizes":[],"default_left":[true,true,true,true,true,true,true,true,true,true,true,true,true,true,false,false,false,false,false,false,false,false,false,false,false,false,false,false,false],"id":4,"left_children":[1,3,5,7,9,11,13,15,17,19,21,23,25,27,-1,-1,-1,-1,-1,-1,-1,-1,-1,-1,-1,-1,-1,-1,-1],"loss_changes":[1.1085348E3,2.3025055E2,2.8097961E1,8.445874E1,5.9382507E1,2.8434189E1,1.1049805E0,7.0460205E1,3.0419575E1,2.959467E1,2.766364E1,1.9803165E1,7.01606E0,1.1075821E1,0E0,0E0,0E0,0E0,0E0,0E0,0E0,0E0,0E0,0E0,0E0,0E0,0E0,0E0,0E0],"parents":[2147483647,0,0,1,1,2,2,3,3,4,4,5,5,6,6,7,7,8,8,9,9,10,10,11,11,12,12,13,13],"right_children":[2,4,6,8,10,12,14,16,18,20,22,24,26,28,-1,-1,-1,-1,-1,-1,-1,-1,-1,-1,-1,-1,-1,-1,-1],"split_conditions":[4.182873E0,9.622905E-2,5.242092E0,1.2151293E0,3.1866886E1,6.797463E-2,8.031129E0,2.2554595E-2,2.2105675E1,4.71892E-2,6.555664E0,6.481668E-1,3.4522378E-1,7.618822E-1,-1.863703E-1,-1.7408869E-1,2.8988877E-1,-1.0710942E-1,2.2082143E-1,2.2227721E-2,-1.3977528E-1,5.7976632E-3,3.142415E-1,2.1834381E-1,-9.982558E-2,2.0266261E-2,-1.6900697E-1,-1.8931012E-1,5.136595E-2],"split_indices":[1,6,0,5,21,6,1,7,10,8,11,5,9,2,0,0,0,0,0,0,0,0,0,0,0,0,0,0,0],"split_type":[0,0,0,0,0,0,0,0,0,0,0,0,0,0,0,0,0,0,0,0,0,0,0,0,0,0,0,0,0],"sum_hessian":[3.4108003E3,1.692486E3,1.7183142E3,1.1446786E3,5.478075E2,2.1719048E2,1.5011238E3,1.0322731E3,1.1240545E2,4.3423636E2,1.1357114E2,7.082985E1,1.4636064E2,1.331107E2,1.3680131E3,2.9724436E1,1.00254865E3,7.5164925E1,3.7240524E1,2.7438794E2,1.5984842E2,4.0537045E1,7.3034096E1,4.160927E1,2.9220577E1,2.023023E1,1.261304E2,1.1329045E2,1.9820246E1],"tree_param":{"num_deleted":"0","num_feature":"40","num_nodes":"29","size_leaf_vector":"0"}},{"base_weights":[2.3475857E-3,5.8402497E-1,-5.621314E-1,9.0116364E-1,1.4516424E-1,-2.6489246E-1,-6.140006E-1,9.8543876E-1,-1.2678607E-2,4.7328258E-1,-1.9854076E-1,-4.5021394E-1,2.632992E-1,3.4350318E-1,-6.171044E-1,-6.7702633E-1,1.0289814E0,1.3479576E0,-1.5529494E-1,2.3770963E-1,1.0581156E0,-2.837096E-1,7.4593294E-1,-9.871648E-2,-6.135361E-1,5.402958E-1,-4.1322082E-1,-4.418435E-1,9.8550713E-1,-6.202794E-1,-3.455728E-1],"categories":[],"categories_nodes":[],"categories_segments":[],"categories_sizes":[],"default_left":[true,true,true,true,true,true,true,true,true,true,true,true,true,true,true,false,false,false,false,false,false,false,false,false,false,false,false,false,false,false,false],"id":5,"left_children":[1,3,5,7,9,11,13,15,17,19,21,23,25,27,29,-1,-1,-1,-1,-1,-1,-1,-1,-1,-1,-1,-1,-1,-1,-1,-1],"loss_changes":[1.1205908E3,2.3380481E2,2.6541016E1,7.514215E1,7.974623E1,2.548037E1,4.592407E0,6.5351746E1,1.6384329E1,4.95709E1,2.8016045E1,1.0971447E1,1.2952288E1,3.1605346E0,1.0524902E0,0E0,0E0,0E0,0E0,0E0,0E0,0E0,0E0,0E0,0E0,0E0,0E0,0E0,0E0,0E0,0E0],"parents":[2147483647,0,0,1,1,2,2,3,3,4,4,5,5,6,6,7,7,8,8,9,9,10,10,11,11,12,12,13,13,14,14],"right_children":[2,4,6,8,10,12,14,16,18,20,22,24,26,28,30,-1,-1,-1,-1,-1,-1,-1,-1,-1,-1,-1,-1,-1,-1,-1,-1],"split_conditions":[4.182873E0,8.049655E-2,7.141085E0,1.2189043E0,7.5237286E-1,3.3087168E0,1.5E0,0E0,2.4323215E-1,2.7928389E1,2.1297724E0,3.572459E-1,1.5814199E-1,1.767767E1,1.5448933E0,-2.0310791E-1,3.0869445E-1,4.043873E-1,-4.6588484E-2,7.131289E-2,3.174347E-1,-8.511288E-2,2.2377989E-1,-2.9614946E-2,-1.8406084E-1,1.6208874E-1,-1.23966254E-1,-1.3255306E-1,2.9565215E-1,-1.8608382E-1,-1.0367184E-1],"split_indices":[11,16,11,15,15,14,10,10,17,21,13,15,16,11,17,0,0,0,0,0,0,0,0,0,0,0,0,0,0,0,0],"split_type":[0,0,0,0,0,0,0,0,0,0,0,0,0,0,0,0,0,0,0,0,0,0,0,0,0,0,0,0,0,0,0],"sum_hessian":[3.410849E3,1.6798171E3,1.731032E3,9.7452924E2,7.052879E2,2.5809753E2,1.4729344E3,8.92174E2,8.235525E1,3.606326E2,3.446553E2,1.9117088E2,6.692664E1,4.404835E0,1.4685295E3,2.2399725E1,8.6977423E2,7.0113707E0,7.534387E1,2.5808246E2,1.0255014E2,3.1678824E2,2.7867075E1,6.1156334E1,1.3001456E2,4.762732E1,1.9299322E1,2.1214705E0,2.2833648E0,1.4502872E3,1.8242401E1],"tree_param":{"num_deleted":"0","num_feature":"40","num_nodes":"31","size_leaf_vector":"0"}},{"base_weights":[-1.6748738E-3,5.857853E-1,-5.6499535E-1,8.637362E-1,8.730687E-2,-2.6628476E-1,-6.1671144E-1,9.5030695E-1,5.4311838E-2,-8.371501E-2,7.3073614E-1,-3.946514E-1,4.745668E-1,2.9145634E-1,-6.1858684E-1,-1.6874252E-1,1.010787E0,-2.6241362E-1,7.781503E-1,-2.1696904E-1,4.8598737E-1,9.989056E-1,-1.4714035E-1,-8.712245E-2,-6.0752445E-1,1.0492111E0,-6.16941E-1,-3.774026E-1,8.532243E-1,-6.2107E-1,-4.050294E-1],"categories":[],"categories_nodes":[],"categories_segments":[],"categories_sizes":[],"default_left":[true,true,true,true,true,true,true,true,true,true,true,true,true,true,true,false,false,false,false,false,false,false,false,false,false,false,false,false,false,false,false],"id":6,"left_children":[1,3,5,7,9,11,13,15,17,19,21,23,25,27,29,-1,-1,-1,-1,-1,-1,-1,-1,-1,-1,-1,-1,-1,-1,-1,-1],"loss_changes":[1.128416E3,2.3119122E2,2.6726135E1,7.503198E1,6.593683E1,2.4785168E1,2.7061768E0,6.567975E1,2.4182251E1,3.607705E1,2.9765053E1,1.4414707E1,2.48908E1,1.7257667E0,5.3344727E-1,0E0,0E0,0E0,0E0,0E0,0E0,0E0,0E0,0E0,0E0,0E0,0E0,0E0,0E0,0E0,0E0],"parents":[2147483647,0,0,1,1,2,2,3,3,4,4,5,5,6,6,7,7,8,8,9,9,10,10,11,11,12,12,13,13,14,14],"right_children":[2,4,6,8,10,12,14,16,18,20,22,24,26,28,30,-1,-1,-1,-1,-1,-1,-1,-1,-1,-1,-1,-1,-1,-1,-1,-1],"split_conditions":[4.182873E0,8.834095E-2,7.141085E0,1.2151293E0,3.128896E1,4.0048957E0,1.5E0,1.7071068E0,3.1200417E1,3.832581E0,6.1811157E-2,5.4349476E-1,1.5927668E-1,1.3165402E0,1.5448933E0,-5.0622758E-2,3.0323613E-1,-7.872409E-2,2.3344511E-1,-6.5090716E-2,1.4579621E-1,2.9967168E-1,-4.414211E-2,-2.6136735E-2,-1.8225734E-1,3.1476337E-1,-1.850823E-1,-1.1322079E-1,2.559673E-1,-1.8632102E-1,-1.2150882E-1],"split_indices":[21,26,21,25,31,24,20,21,31,24,28,25,26,17,27,0,0,0,0,0,0,0,0,0,0,0,0,0,0,0,0],"split_type":[0,0,0,0,0,0,0,0,0,0,0,0,0,0,0,0,0,0,0,0,0,0,0,0,0,0,0,0,0,0,0],"sum_hessian":[3.4078494E3,1.6681622E3,1.7396871E3,1.070513E3,5.9764935E2,2.5765103E2,1.482036E3,9.6692316E2,1.0358978E2,4.7283966E2,1.2480969E2,2.1999928E2,3.7651768E1,2.735946E0,1.4793E3,4.9486958E1,9.1743616E2,7.25027E1,3.1087082E1,3.8370886E2,8.913079E1,9.54992E1,2.9310495E1,9.056827E1,1.2943102E2,2.469132E1,1.2960449E1,1.398744E0,1.3372018E0,1.4604106E3,1.888949E1],"tree_param":{"num_deleted":"0","num_feature":"40","num_nodes":"31","size_leaf_vector":"0"}},{"base_weights":[-3.1408432E-3,5.827467E-1,-5.656032E-1,8.9306474E-1,1.485626E-1,-2.6841366E-1,-6.1639196E-1,9.7793394E-1,-1.040133E-2,4.6379253E-1,-2.0430088E-1,-4.379448E-1,1.924457E-1,3.253197E-1,-6.194657E-1,2.9973757E-1,1.1027554E0,-3.3414268E-1,6.3299495E-1,2.2089781E-1,1.016372E0,-2.8386262E-1,7.817305E-1,-8.378978E-2,-6.009414E-1,6.2537484E-2,1.4992082E0,-4.542552E-1,9.868622E-1,-6.226239E-1,-3.7019095E-1],"categories":[],"categories_nodes":[],"categories_segments":[],"categories_sizes":[],"default_left":[true,true,true,true,true,true,true,true,true,true,true,true,true,true,true,false,false,false,false,false,false,false,false,false,false,false,false,false,false,false,false],"id":7,"left_children":[1,3,5,7,9,11,13,15,17,19,21,23,25,27,29,-1,-1,-1,-1,-1,-1,-1,-1,-1,-1,-1,-1,-1,-1,-1,-1],"loss_changes":[1.1229459E3,2.2474792E2,2.6076172E1,7.462958E1,7.761131E1,2.0048143E1,4.4972534E0,7.497864E1,1.7824148E1,4.9218292E1,2.6071962E1,1.0750713E1,1.1689581E1,3.2764297E0,9.343872E-1,0E0,0E0,0E0,0E0,0E0,0E0,0E0,0E0,0E0,0E0,0E0,0E0,0E0,0E0,0E0,0E0],"parents":[2147483647,0,0,1,1,2,2,3,3,4,4,5,5,6,6,7,7,8,8,9,9,10,10,11,11,12,12,13,13,14,14],"right_children":[2,4,6,8,10,12,14,16,18,20,22,24,26,28,30,-1,-1,-1,-1,-1,-1,-1,-1,-1,-1,-1,-1,-1,-1,-1,-1],"split_conditions":[4.182873E0,8.049655E-2,7.141085E0,1.2189043E0,7.5237286E-1,3.3087168E0,1.5E0,4.2578042E-1,2.7070343E1,2.6935028E1,2.1297724E0,3.572459E-1,4.665723E1,1.767767E1,1.5448933E0,8.992127E-2,3.3082664E-1,-1.0024281E-1,1.8989849E-1,6.6269346E-2,3.049116E-1,-8.515879E-2,2.3451915E-1,-2.5136935E-2,-1.8028243E-1,1.8761246E-2,4.497625E-1,-1.3627656E-1,2.9605865E-1,-1.8678719E-1,-1.1105729E-1],"split_indices":[31,36,31,35,35,34,30,32,0,21,33,35,0,31,37,0,0,0,0,0,0,0,0,0,0,0,0,0,0,0,0],"split_type":[0,0,0,0,0,0,0,0,0,0,0,0,0,0,0,0,0,0,0,0,0,0,0,0,0,0,0,0,0,0,0],"sum_hessian":[3.4056194E3,1.6680564E3,1.7375629E3,9.721728E2,6.9588367E2,2.5452103E2,1.4830419E3,8.8861615E2,8.355663E1,3.6737527E2,3.285084E2,1.8610895E2,6.841208E1,4.483852E0,1.478558E3,1.3865569E2,7.4996045E2,5.59065E1,2.7650133E1,2.5617108E2,1.1120417E2,3.046395E2,2.38689E1,5.91353E1,1.26973656E2,6.3179153E1,5.2329254E0,2.2021425E0,2.2817094E0,1.4585804E3,1.9977585E1],"tree_param":{"num_deleted":"0","num_feature":"40","num_nodes":"31","size_leaf_vector":"0"}},{"base_weights":[1.9136504E-3,4.51829E-1,-5.288928E-1,7.415557E-1,1.6977948E-1,-1.8914057E-1,-5.8256227E-1,-2.6532316E-1,8.103673E-1,4.3612266E-1,-1.2174091E-1,1.5396714E-1,-5.229101E-1,-4.7140327E-1,-5.933157E-1,9.517028E-2,-6.4350265E-1,8.633618E-1,-1.11097746E-1,2.780828E-2,6.752707E-1,-3.0865625E-1,1.525082E-1,5.295349E-1,-2.22461E-1,-5.595694E-1,1.0878558E0,-6.000204E-1,1.3435774E-1],"categories":[],"categories_nodes":[],"categories_segments":[],"categories_sizes":[],"default_left":[true,true,true,true,true,true,true,true,true,true,true,true,true,true,false,false,false,false,false,false,false,false,false,false,false,false,false,false,false],"id":8,"left_children":[1,3,5,7,9,11,13,15,17,19,21,23,25,27,-1,-1,-1,-1,-1,-1,-1,-1,-1,-1,-1,-1,-1,-1,-1],"loss_changes":[7.673547E2,1.4198676E2,2.676825E1,5.963147E1,6.857518E1,2.3278316E1,1.241394E0,7.6428437E0,3.9306274E1,4.5034668E1,2.1685658E1,1.4348387E1,6.6854286E0,9.204687E0,0E0,0E0,0E0,0E0,0E0,0E0,0E0,0E0,0E0,0E0,0E0,0E0,0E0,0E0,0E0],"parents":[2147483647,0,0,1,1,2,2,3,3,4,4,5,5,6,6,7,7,8,8,9,9,10,10,11,11,12,12,13,13],"right_children":[2,4,6,8,10,12,14,16,18,20,22,24,26,28,-1,-1,-1,-1,-1,-1,-1,-1,-1,-1,-1,-1,-1,-1,-1],"split_conditions":[4.182873E0,6.458056E-2,5.242092E0,1.7071068E0,7.5237286E-1,9.690598E-2,8.031129E0,-9.8117894E-1,1.2195159E0,4.736068E0,1.2740388E0,6.769593E-1,5.4400185E1,7.618822E-1,-1.7799473E-1,2.8551085E-2,-1.930508E-1,2.5900856E-1,-3.3329327E-2,8.342485E-3,2.0258121E-1,-9.259687E-2,4.5752462E-2,1.5886047E-1,-6.67383E-2,-1.6787083E-1,3.2635677E-1,-1.8000613E-1,4.030732E-2],"split_indices":[1,6,0,1,5,6,1,12,5,21,7,9,10,2,0,0,0,0,0,0,0,0,0,0,0,0,0,0,0],"split_type":[0,0,0,0,0,0,0,0,0,0,0,0,0,0,0,0,0,0,0,0,0,0,0,0,0,0,0,0,0],"sum_hessian":[3.2111355E3,1.7380775E3,1.473058E3,8.5656665E2,8.8151086E2,2.0156746E2,1.2714906E3,5.4611626E1,8.01955E2,4.6038818E2,4.2112268E2,9.965896E1,1.019085E2,1.1610853E2,1.155382E3,2.8342728E1,2.6268898E1,7.584015E2,4.35535E1,1.7046222E2,2.8992593E2,2.5036212E2,1.7076054E2,4.9682888E1,4.9976067E1,1.0027887E2,1.6296319E0,9.578139E1,2.0327135E1],"tree_param":{"num_deleted":"0","num_feature":"40","num_nodes":"29","size_leaf_vector":"0"}},{"base_weights":[2.2140858E-3,4.577554E-1,-5.277423E-1,6.2461084E-1,-5.5534758E-2,-1.9426219E-1,-5.8031726E-1,7.3905736E-1,1.8248372E-1,1.1291422E-1,-4.151891E-1,1.836705E-1,-5.356536E-1,-4.6573174E-1,-5.9184974E-1,1.4631179E-1,8.187771E-1,4.408456E-1,-1.8739992E-1,4.0150627E-1,-2.6668295E-1,8.959646E-1,-4.8617828E-1,6.0282016E-1,-2.5989923E-1,-5.774388E-1,9.374891E-1,-6.0750455E-1,2.4012592E-1,-5.969865E-1,-5.111945E-1],"categories":[],"categories_nodes":[],"categories_segments":[],"categories_sizes":[],"default_left":[true,true,true,true,true,true,true,true,true,true,true,true,true,true,true,false,false,false,false,false,false,false,false,false,false,false,false,false,false,false,false],"id":9,"left_children":[1,3,5,7,9,11,13,15,17,19,21,23,25,27,29,-1,-1,-1,-1,-1,-1,-1,-1,-1,-1,-1,-1,-1,-1,-1,-1],"loss_changes":[7.754922E2,1.4797842E2,2.5920654E1,6.5832855E1,2.5776045E1,2.6382614E1,1.4186401E0,4.8802063E1,2.5828106E1,3.1877617E1,1.3064112E1,1.8270878E1,7.1455383E0,1.2347908E1,1.7590332E-1,0E0,0E0,0E0,0E0,0E0,0E0,0E0,0E0,0E0,0E0,0E0,0E0,0E0,0E0,0E0,0E0],"parents":[2147483647,0,0,1,1,2,2,3,3,4,4,5,5,6,6,7,7,8,8,9,9,10,10,11,11,12,12,13,13,14,14],"right_children":[2,4,6,8,10,12,14,16,18,20,22,24,26,28,30,-1,-1,-1,-1,-1,-1,-1,-1,-1,-1,-1,-1,-1,-1,-1,-1],"split_conditions":[4.182873E0,1.158044E-1,5.242092E0,8.974618E-1,6.1811157E-2,9.690598E-2,8.031129E0,3.839056E-1,9.867966E-3,1.9198176E-1,5.2254575E-1,6.3226175E-1,5.4400185E1,7.618822E-1,1.4739777E0,4.389354E-2,2.4563314E-1,1.3225369E-1,-5.621998E-2,1.2045189E-1,-8.0004886E-2,2.687894E-1,-1.4585349E-1,1.8084605E-1,-7.7969775E-2,-1.7323163E-1,2.8124675E-1,-1.8225136E-1,7.203778E-2,-1.7909595E-1,-1.5335837E-1],"split_indices":[11,16,10,15,18,16,11,13,18,16,19,15,0,12,19,0,0,0,0,0,0,0,0,0,0,0,0,0,0,0,0],"split_type":[0,0,0,0,0,0,0,0,0,0,0,0,0,0,0,0,0,0,0,0,0,0,0,0,0,0,0,0,0,0,0],"sum_hessian":[3.2102507E3,1.7264019E3,1.4838488E3,1.3027119E3,4.2368997E2,2.0271742E2,1.2811313E3,1.0343057E3,2.6840622E2,2.890129E2,1.3467706E2,9.642901E1,1.06288414E2,1.2093326E2,1.1601981E3,1.2295146E2,9.1135425E2,1.5791295E2,1.1049326E2,1.6415495E2,1.2485795E2,6.3203597E0,1.283567E2,4.939467E1,4.703434E1,1.0394799E2,2.3404262E0,1.00822266E2,2.0110992E1,1.0847129E3,7.548516E1],"tree_param":{"num_deleted":"0","num_feature":"40","num_nodes":"31","size_leaf_vector":"0"}},{"base_weights":[-1.8982729E-3,4.571156E-1,-5.3070605E-1,6.077458E-1,-9.4950505E-2,-2.3065697E-1,-5.875494E-1,7.4229413E-1,1.13037825E-1,-2.4480611E-1,4.0435708E-1,2.0769742E-1,-4.1815594E-1,2.314072E-1,-5.895862E-1,1.650429E-1,8.2555383E-1,3.5322067E-1,-2.664734E-1,1.0127232E0,-2.7422372E-1,7.5241E-1,-1.0496875E-1,-4.3754622E-1,5.190452E-1,-5.538075E-1,-1.760354E-2,-3.7313068E-1,7.2266966E-1,-5.9242594E-1,-3.6291412E-1],"categories":[],"categories_nodes":[],"categories_segments":[],"categories_sizes":[],"default_left":[true,true,true,true,true,true,true,true,true,true,true,true,true,true,true,false,false,false,false,false,false,false,false,false,false,false,false,false,false,false,false],"id":10,"left_children":[1,3,5,7,9,11,13,15,17,19,21,23,25,27,29,-1,-1,-1,-1,-1,-1,-1,-1,-1,-1,-1,-1,-1,-1,-1,-1],"loss_changes":[7.785892E2,1.4285098E2,2.5286102E1,8.97207E1,2.7705362E1,1.973398E1,2.225647E0,5.0834167E1,2.6497602E1,1.079879E1,1.5244142E1,1.4748344E1,9.10557E0,1.4057543E0,5.89386E-1,0E0,0E0,0E0,0E0,0E0,0E0,0E0,0E0,0E0,0E0,0E0,0E0,0E0,0E0,0E0,0E0],"parents":[2147483647,0,0,1,1,2,2,3,3,4,4,5,5,6,6,7,7,8,8,9,9,10,10,11,11,12,12,13,13,14,14],"right_children":[2,4,6,8,10,12,14,16,18,20,22,24,26,28,30,-1,-1,-1,-1,-1,-1,-1,-1,-1,-1,-1,-1,-1,-1,-1,-1],"split_conditions":[4.182873E0,1.2418756E-1,7.141085E0,8.974618E-1,2.8115593E1,6.0333386E-2,1.5E0,3.227752E-1,8.049655E-2,1.6903754E-2,7.111407E-1,-2.3866044E-1,3.3087168E0,1.3165402E0,1.5448933E0,4.9512874E-2,2.4766617E-1,1.059662E-1,-7.9942025E-2,3.0381697E-1,-8.226712E-2,2.2572301E-1,-3.1490628E-2,-1.3126387E-1,1.5571356E-1,-1.6614226E-1,-5.2810623E-3,-1.1193921E-1,2.1680091E-1,-1.7772779E-1,-1.0887424E-1],"split_indices":[21,26,21,25,11,26,20,22,26,7,25,22,24,17,27,0,0,0,0,0,0,0,0,0,0,0,0,0,0,0,0],"split_type":[0,0,0,0,0,0,0,0,0,0,0,0,0,0,0,0,0,0,0,0,0,0,0,0,0,0,0,0,0,0,0],"sum_hessian":[3.2056338E3,1.7161355E3,1.4894983E3,1.3481848E3,3.6795062E2,2.3804237E2,1.2514559E3,1.0595209E3,2.8866397E2,2.8340338E2,8.454725E1,7.128267E1,1.667597E2,2.825437E0,1.2486305E3,1.3393214E2,9.2558875E2,1.7682516E2,1.11838806E2,5.7141004E0,2.7768927E2,4.994177E1,3.460548E1,2.3068888E1,4.8213783E1,1.2428618E2,4.247352E1,1.3744867E0,1.4509504E0,1.2315876E3,1.704282E1],"tree_param":{"num_deleted":"0","num_feature":"40","num_nodes":"31","size_leaf_vector":"0"}},{"base_weights":[-2.24064E-3,4.5946607E-1,-5.3140044E-1,6.207183E-1,-2.79904E-2,-1.981975E-1,-5.8299947E-1,7.373067E-1,1.674525E-1,-1.6148396E-1,4.9442005E-1,2.9241532E-1,-4.461409E-1,-4.6784246E-1,-5.9428346E-1,-6.9699305E-1,7.7111197E-1,4.1311038E-1,-1.7376983E-1,-5.4576415E-1,-4.285836E-2,7.965495E-1,-1.1564881E-1,6.710249E-1,-2.842254E-1,1.7166117E-1,-5.363671E-1,-6.041993E-1,1.8999575E-1],"categories":[],"categories_nodes":[],"categories_segments":[],"categories_sizes":[],"default_left":[true,true,true,true,true,true,true,true,true,true,true,true,true,true,false,false,false,false,false,false,false,false,false,false,false,false,false,false,false],"id":11,"left_children":[1,3,5,7,9,11,13,15,17,19,21,23,25,27,-1,-1,-1,-1,-1,-1,-1,-1,-1,-1,-1,-1,-1,-1,-1],"loss_changes":[7.8203107E2,1.3438196E2,2.5527649E1,6.775818E1,2.9779282E1,2.4643362E1,1.3994751E0,5.0063293E1,2.2209707E1,1.5473273E1,1.61135E1,1.5092223E1,7.5758953E0,1.0870886E1,0E0,0E0,0E0,0E0,0E0,0E0,0E0,0E0,0E0,0E0,0E0,0E0,0E0,0E0,0E0],"parents":[2147483647,0,0,1,1,2,2,3,3,4,4,5,5,6,6,7,7,8,8,9,9,10,10,11,11,12,12,13,13],"right_children":[2,4,6,8,10,12,14,16,18,20,22,24,26,28,-1,-1,-1,-1,-1,-1,-1,-1,-1,-1,-1,-1,-1,-1,-1],"split_conditions":[4.182873E0,1.158044E-1,5.242092E0,8.974618E-1,3.1866886E1,6.797463E-2,8.031129E0,0E0,9.867966E-3,7.1127135E-1,7.111407E-1,6.481668E-1,3.4522378E-1,7.618822E-1,-1.7828505E-1,-2.0909792E-1,2.313336E-1,1.23933114E-1,-5.2130952E-2,-1.6372925E-1,-1.2857508E-2,2.3896486E-1,-3.4694646E-2,2.0130749E-1,-8.5267626E-2,5.1498353E-2,-1.6091014E-1,-1.812598E-1,5.6998726E-2],"split_indices":[31,36,30,35,11,36,31,30,38,32,35,35,39,32,0,0,0,0,0,0,0,0,0,0,0,0,0,0,0],"split_type":[0,0,0,0,0,0,0,0,0,0,0,0,0,0,0,0,0,0,0,0,0,0,0,0,0,0,0,0,0],"sum_hessian":[3.198892E3,1.7083984E3,1.4904938E3,1.2835294E3,4.248691E2,2.0051312E2,1.2899806E3,1.0204292E3,2.6310016E2,3.3894745E2,8.592166E1,6.7254776E1,1.3325835E2,1.18910866E2,1.1710697E3,2.304511E1,9.973841E2,1.5284851E2,1.1025166E2,7.910171E1,2.5984573E2,5.7259094E1,2.8662569E1,4.049981E1,2.6754965E1,1.6866505E1,1.16391846E2,9.856238E1,2.0348492E1],"tree_param":{"num_deleted":"0","num_feature":"40","num_nodes":"29","size_leaf_vector":"0"}},{"base_weights":[1.8484471E-3,3.4526107E-1,-5.4335874E-1,4.674999E-1,-1.5333073E-1,-3.3357364E-1,-5.6973165E-1,-2.7421484E-2,5.4961014E-1,-2.145441E-1,8.020896E-1,-5.405937E-1,1.21255554E-1,3.2834417E-1,-5.7370645E-1,2.2991687E-1,-4.4562554E-1,6.53289E-1,1.7764089E-1,-5.7004005E-1,-8.66549E-2,9.330435E-1,1.8270193E-1,1.7273135E-1,-5.7936966E-1,8.072075E-1,-4.8840997E-1,-3.7014958E-1,7.604594E-1],"categories":[],"categories_nodes":[],"categories_segments":[],"categories_sizes":[],"default_left":[true,true,true,true,true,true,true,true,true,true,true,true,true,true,false,false,false,false,false,false,false,false,false,false,false,false,false,false,false],"id":12,"left_children":[1,3,5,7,9,11,13,15,17,19,21,23,25,27,-1,-1,-1,-1,-1,-1,-1,-1,-1,-1,-1,-1,-1,-1,-1],"loss_changes":[5.547983E2,1.1087593E2,6.1455994E0,5.935971E1,2.1151413E1,1.2334022E1,3.8146057E0,2.2568378E1,4.8189606E1,1.5313196E1,1.5985651E0,2.5818138E0,1.7779707E1,1.8245096E0,0E0,0E0,0E0,0E0,0E0,0E0,0E0,0E0,0E0,0E0,0E0,0E0,0E0,0E0,0E0],"parents":[2147483647,0,0,1,1,2,2,3,3,4,4,5,5,6,6,7,7,8,8,9,9,10,10,11,11,12,12,13,13],"right_children":[2,4,6,8,10,12,14,16,18,20,22,24,26,28,-1,-1,-1,-1,-1,-1,-1,-1,-1,-1,-1,-1,-1,-1,-1],"split_conditions":[5.242092E0,1.3339856E-1,8.031129E0,5.3894985E-1,4.8051407E1,7.142321E-1,1.5E0,4.62945E-1,8.974618E-1,7.1127135E-1,6.6676545E-1,3.216989E0,8.23301E-1,1.767767E1,-1.7211194E-1,6.897506E-2,-1.3368767E-1,1.9598672E-1,5.3292267E-2,-1.7101201E-1,-2.599647E-2,2.7991307E-1,5.481058E-2,5.181941E-2,-1.738109E-1,2.4216227E-1,-1.46523E-1,-1.1104488E-1,2.2813784E-1],"split_indices":[1,6,1,3,11,2,0,24,5,2,5,0,22,1,0,0,0,0,0,0,0,0,0,0,0,0,0,0,0],"split_type":[0,0,0,0,0,0,0,0,0,0,0,0,0,0,0,0,0,0,0,0,0,0,0,0,0,0,0,0,0],"sum_hessian":[2.961173E3,1.8170344E3,1.1441385E3,1.4593184E3,3.5771603E2,1.2929556E2,1.014843E3,2.0775241E2,1.2515659E3,3.3690604E2,2.0809984E1,8.872358E1,4.057199E1,4.1122384E0,1.0107308E3,1.2889078E2,7.886163E1,9.7816583E2,2.7340015E2,8.822053E1,2.4868552E2,1.676009E1,4.049895E0,4.396197E0,8.432738E1,1.893908E1,2.1632912E1,1.626492E0,2.4857464E0],"tree_param":{"num_deleted":"0","num_feature":"40","num_nodes":"29","size_leaf_vector":"0"}},{"base_weights":[1.845579E-3,3.7365323E-1,-4.9890766E-1,6.168104E-1,1.401972E-1,-1.9082697E-1,-5.6316906E-1,-2.5932473E-1,6.771272E-1,2.844125E-1,-2.1259826E-1,9.334126E-2,-4.7859332E-1,2.688705E-1,-5.668365E-1,-5.617076E-1,2.0707011E-1,7.233893E-1,-8.184447E-2,4.4669685E-1,-1.35655E-1,7.975279E-1,-2.87995E-1,4.893492E-1,-2.543603E-1,-5.462491E-1,7.050634E-1,-3.8969994E-1,7.132623E-1,-5.710952E-1,-2.518299E-1],"categories":[],"categories_nodes":[],"categories_segments":[],"categories_sizes":[],"default_left":[true,true,true,true,true,true,true,true,true,true,true,true,true,true,true,false,false,false,false,false,false,false,false,false,false,false,false,false,false,false,false],"id":13,"left_children":[1,3,5,7,9,11,13,15,17,19,21,23,25,27,29,-1,-1,-1,-1,-1,-1,-1,-1,-1,-1,-1,-1,-1,-1,-1,-1],"loss_changes":[5.523699E2,9.656476E1,2.4920502E1,4.4232178E1,4.432105E1,1.8009995E1,3.3426208E0,7.791237E0,2.7455475E1,4.218525E1,1.9497833E1,1.5460006E1,9.13957E0,1.8191998E0,1.2530212E0,0E0,0E0,0E0,0E0,0E0,0E0,0E0,0E0,0E0,0E0,0E0,0E0,0E0,0E0,0E0,0E0],"parents":[2147483647,0,0,1,1,2,2,3,3,4,4,5,5,6,6,7,7,8,8,9,9,10,10,11,11,12,12,13,13,14,14],"right_children":[2,4,6,8,10,12,14,16,18,20,22,24,26,28,30,-1,-1,-1,-1,-1,-1,-1,-1,-1,-1,-1,-1,-1,-1,-1,-1],"split_conditions":[4.182873E0,6.458056E-2,7.141085E0,1.7071068E0,5.7020646E-2,9.690598E-2,1.5E0,1.216903E0,1.2195159E0,1.5568677E-1,5.339564E-1,5.4349476E-1,4.7438675E1,1.767767E1,1.5448933E0,-1.6851228E-1,6.2121037E-2,2.170168E-1,-2.4553342E-2,1.3400906E-1,-4.06965E-2,2.3925838E-1,-8.6398505E-2,1.4680476E-1,-7.630809E-2,-1.6387473E-1,2.1151903E-1,-1.1690999E-1,2.1397871E-1,-1.7132857E-1,-7.554897E-2],"split_indices":[11,16,11,11,18,16,10,17,15,16,19,15,0,11,17,0,0,0,0,0,0,0,0,0,0,0,0,0,0,0,0],"split_type":[0,0,0,0,0,0,0,0,0,0,0,0,0,0,0,0,0,0,0,0,0,0,0,0,0,0,0,0,0,0,0],"sum_hessian":[2.9647964E3,1.7016101E3,1.2631862E3,8.3268317E2,8.6892694E2,2.1869464E2,1.0444915E3,5.3420567E1,7.7926263E2,6.16932E2,2.5199492E2,1.1037518E2,1.0831946E2,4.2662616E0,1.0402252E3,3.2284706E1,2.113586E1,7.345368E2,4.472582E1,4.449655E2,1.7196652E2,1.6837475E1,2.3515744E2,5.1412514E1,5.896267E1,1.0297225E2,5.347208E0,1.7684953E0,2.497766E0,1.0255474E3,1.4677899E1],"tree_param":{"num_deleted":"0","num_feature":"40","num_nodes":"31","size_leaf_vector":"0"}},{"base_weights":[-1.9770418E-3,3.453037E-1,-5.4478484E-1,6.1325085E-1,9.475546E-2,-3.5868648E-1,-5.688871E-1,6.721036E-1,-2.6434782E-1,2.556719E-1,-2.604873E-1,-5.493643E-1,1.3953206E-1,2.0493656E-1,-5.711993E-1,-6.7987335E-1,7.1230114E-1,-5.140979E-1,3.7320822E-1,1.20727524E-1,7.6180583E-1,7.353296E-1,-3.2010138E-1,6.40915E-1,-5.889418E-1,8.352472E-1,-5.20022E-1,-3.528291E-1,6.326115E-1,-5.771304E-1,-4.8066297E-1],"categories":[],"categories_nodes":[],"categories_segments":[],"categories_sizes":[],"default_left":[true,true,true,true,true,true,true,true,true,true,true,true,true,true,true,false,false,false,false,false,false,false,false,false,false,false,false,false,false,false,false],"id":14,"left_children":[1,3,5,7,9,11,13,15,17,19,21,23,25,27,29,-1,-1,-1,-1,-1,-1,-1,-1,-1,-1,-1,-1,-1,-1,-1,-1],"loss_changes":[5.57267E2,1.2097124E2,4.9694214E0,4.516272E1,5.339163E1,1.2897753E1,1.94104E0,4.4858948E1,9.022024E0,4.3792263E1,1.7529156E1,4.984997E0,1.794116E1,1.1232046E0,2.6852417E-1,0E0,0E0,0E0,0E0,0E0,0E0,0E0,0E0,0E0,0E0,0E0,0E0,0E0,0E0,0E0,0E0],"parents":[2147483647,0,0,1,1,2,2,3,3,4,4,5,5,6,6,7,7,8,8,9,9,10,10,11,11,12,12,13,13,14,14],"right_children":[2,4,6,8,10,12,14,16,18,20,22,24,26,28,30,-1,-1,-1,-1,-1,-1,-1,-1,-1,-1,-1,-1,-1,-1,-1,-1],"split_conditions":[5.242092E0,6.454043E-2,8.031129E0,1.2195159E0,5.7020646E-2,7.142321E-1,1.5E0,0E0,3.0763771E1,3.579789E1,5.339564E-1,-1.0884469E0,8.521917E-1,1.3165402E0,1.4739777E0,-2.0396201E-1,2.1369036E-1,-1.5422939E-1,1.11962475E-1,3.621826E-2,2.2854176E-1,2.2059889E-1,-9.603042E-2,1.922745E-1,-1.7668255E-1,2.5057417E-1,-1.560066E-1,-1.0584874E-1,1.8978347E-1,-1.7313913E-1,-1.441989E-1],"split_indices":[21,26,21,25,28,22,20,20,10,1,29,4,32,17,29,0,0,0,0,0,0,0,0,0,0,0,0,0,0,0,0],"split_type":[0,0,0,0,0,0,0,0,0,0,0,0,0,0,0,0,0,0,0,0,0,0,0,0,0,0,0,0,0,0,0],"sum_hessian":[2.9542207E3,1.8018113E3,1.1524094E3,8.699748E2,9.318364E2,1.3396004E2,1.0184494E3,8.1551935E2,5.445548E1,6.4152246E2,2.9031396E2,9.680734E1,3.7152695E1,2.7729175E0,1.01567645E3,2.3087753E1,7.924316E2,3.926703E1,1.5188448E1,5.074624E2,1.3406004E2,1.575763E1,2.7455634E2,2.6263676E0,9.418098E1,1.795106E1,1.9201637E1,1.2793801E0,1.4935373E0,9.4818555E2,6.749096E1],"tree_param":{"num_deleted":"0","num_feature":"40","num_nodes":"31","size_leaf_vector":"0"}},{"base_weights":[-1.72845E-3,3.4927356E-1,-5.4388565E-1,6.090449E-1,1.0637365E-1,-3.3899328E-1,-5.700013E-1,-3.305056E-1,6.6691524E-1,2.7344915E-1,-2.4939843E-1,-5.270429E-1,9.68254E-2,2.536299E-1,-5.7376295E-1,7.089435E-2,-7.059546E-1,7.1650606E-1,-1.5104173E-1,9.543076E-2,6.31217E-1,6.4454263E-1,-3.0429938E-1,3.1168488E-1,-5.8325917E-1,7.749488E-1,-4.788001E-1,-4.039772E-1,7.207718E-1],"categories":[],"categories_nodes":[],"categories_segments":[],"categories_sizes":[],"default_left":[true,true,true,true,true,true,true,true,true,true,true,true,true,true,false,false,false,false,false,false,false,false,false,false,false,false,false,false,false],"id":15,"left_children":[1,3,5,7,9,11,13,15,17,19,21,23,25,27,-1,-1,-1,-1,-1,-1,-1,-1,-1,-1,-1,-1,-1,-1,-1],"loss_changes":[5.624006E2,1.1313005E2,6.021454E0,4.7342163E1,5.524633E1,1.1014025E1,3.3325195E0,7.728752E0,3.3236206E1,4.0199703E1,1.4780041E1,4.595129E0,1.6439878E1,1.9408501E0,0E0,0E0,0E0,0E0,0E0,0E0,0E0,0E0,0E0,0E0,0E0,0E0,0E0,0E0,0E0],"parents":[2147483647,0,0,1,1,2,2,3,3,4,4,5,5,6,6,7,7,8,8,9,9,10,10,11,11,12,12,13,13],"right_children":[2,4,6,8,10,12,14,16,18,20,22,24,26,28,-1,-1,-1,-1,-1,-1,-1,-1,-1,-1,-1,-1,-1,-1,-1],"split_conditions":[5.242092E0,6.454043E-2,8.031129E0,1.7071068E0,5.7020646E-2,7.142321E-1,1.5E0,-9.8117894E-1,1.2195159E0,2.3884865E1,5.339564E-1,3.216989E0,8.521917E-1,1.767767E1,-1.7212889E-1,2.1268306E-2,-2.1178639E-1,2.1495183E-1,-4.531252E-2,2.862923E-2,1.893651E-1,1.933628E-1,-9.128982E-2,9.3505464E-2,-1.7497775E-1,2.3248464E-1,-1.4364003E-1,-1.2119316E-1,2.1623154E-1],"split_indices":[31,36,31,31,38,32,30,2,35,11,39,30,22,31,0,0,0,0,0,0,0,0,0,0,0,0,0,0,0],"split_type":[0,0,0,0,0,0,0,0,0,0,0,0,0,0,0,0,0,0,0,0,0,0,0,0,0,0,0,0,0],"sum_hessian":[2.9533652E3,1.7929403E3,1.160425E3,8.65653E2,9.272873E2,1.3276755E2,1.0276575E3,4.9951813E1,8.1570123E2,6.3113086E2,2.961564E2,9.260184E1,4.016571E1,4.3701086E0,1.02328735E3,2.4533613E1,2.5418198E1,7.69191E2,4.651021E1,4.2227948E2,2.088514E2,1.6514477E1,2.796419E2,5.5313597E0,8.707048E1,1.8282038E1,2.1883675E1,1.8711957E0,2.498913E0],"tree_param":{"num_deleted":"0","num_feature":"40","num_nodes":"29","size_leaf_vector":"0"}},{"base_weights":[1.354521E-3,2.887852E-1,-5.236169E-1,5.214929E-1,7.024353E-2,-3.0299303E-1,-5.5316716E-1,1.5179706E-1,6.2825793E-1,1.7043576E-1,-3.991558E-1,-5.185682E-1,1.05300136E-1,2.9411194E-1,-5.5751514E-1,3.5847455E-1,-3.3380765E-1,6.77317E-1,-1.6452906E-1,4.7540966E-2,5.6376696E-1,-4.7667634E-1,1.6120633E-1,3.6662367E-1,-5.51131E-1,6.9108117E-1,-4.4884673E-1,-3.4921533E-1,6.681494E-1,-5.6231E-1,-4.78411E-1],"categories":[],"categories_nodes":[],"categories_segments":[],"categories_sizes":[],"default_left":[true,true,true,true,true,true,true,true,true,true,true,true,true,true,true,false,false,false,false,false,false,false,false,false,false,false,false,false,false,false,false],"id":16,"left_children":[1,3,5,7,9,11,13,15,17,19,21,23,25,27,29,-1,-1,-1,-1,-1,-1,-1,-1,-1,-1,-1,-1,-1,-1,-1,-1],"loss_changes":[4.0848358E2,8.892746E1,6.0766907E0,3.333809E1,4.254919E1,1.0206909E1,3.2711487E0,1.9301575E1,2.5661377E1,3.5989513E1,6.9918575E0,2.3827877E0,1.3517786E1,1.4270484E0,4.940796E-2,0E0,0E0,0E0,0E0,0E0,0E0,0E0,0E0,0E0,0E0,0E0,0E0,0E0,0E0,0E0,0E0],"parents":[2147483647,0,0,1,1,2,2,3,3,4,4,5,5,6,6,7,7,8,8,9,9,10,10,11,11,12,12,13,13,14,14],"right_children":[2,4,6,8,10,12,14,16,18,20,22,24,26,28,30,-1,-1,-1,-1,-1,-1,-1,-1,-1,-1,-1,-1,-1,-1,-1,-1],"split_conditions":[5.242092E0,6.454043E-2,8.031129E0,1.6068847E0,1.2982735E-1,7.142321E-1,1.5E0,1.1219519E0,1.2195159E0,3.1280975E1,1.7911668E0,-1.0884469E0,8.23301E-1,1.767767E1,1.4739777E0,1.0754237E-1,-1.001423E-1,2.0319511E-1,-4.9358718E-2,1.4262291E-2,1.6913009E-1,-1.4300291E-1,4.83619E-2,1.099871E-1,-1.653393E-1,2.0732436E-1,-1.3465403E-1,-1.047646E-1,2.0044483E-1,-1.68693E-1,-1.435233E-1],"split_indices":[1,6,1,4,8,2,0,14,5,31,2,14,12,1,9,0,0,0,0,0,0,0,0,0,0,0,0,0,0,0,0],"split_type":[0,0,0,0,0,0,0,0,0,0,0,0,0,0,0,0,0,0,0,0,0,0,0,0,0,0,0,0,0,0,0],"sum_hessian":[2.7051077E3,1.7483219E3,9.567857E2,8.4604706E2,9.022748E2,1.1434365E2,8.424421E2,1.9012425E2,6.559228E2,7.440879E2,1.5818695E2,7.46559E1,3.9687748E1,3.9608438E0,8.384812E2,1.3354721E2,5.6577038E1,6.1783563E2,3.8087135E1,5.678014E2,1.7628645E2,1.3909402E2,1.9092934E1,2.284862E0,7.237104E1,1.9173061E1,2.0514687E1,1.4806157E0,2.4802282E0,7.8480237E2,5.3678844E1],"tree_param":{"num_deleted":"0","num_feature":"40","num_nodes":"31","size_leaf_vector":"0"}},{"base_weights":[1.6421888E-3,2.870527E-1,-5.218115E-1,5.1421124E-1,7.923571E-2,-3.0439728E-1,-5.5020195E-1,8.257208E-2,6.079481E-1,-2.9368792E-2,4.663944E-1,-5.1974064E-1,2.1661891E-1,2.25642E-1,-5.543129E-1,3.015642E-1,-4.856486E-1,6.530038E-1,-1.15479775E-1,-2.6319802E-1,1.5776907E-1,5.8393526E-1,-2.9937917E-1,5.1644945E-1,-5.746473E-1,9.310844E-1,-4.9227336E-1,-3.8004008E-1,6.3309586E-1,-5.6123435E-1,-4.5123026E-1],"categories":[],"categories_nodes":[],"categories_segments":[],"categories_sizes":[],"default_left":[true,true,true,true,true,true,true,true,true,true,true,true,true,true,true,false,false,false,false,false,false,false,false,false,false,false,false,false,false,false,false],"id":17,"left_children":[1,3,5,7,9,11,13,15,17,19,21,23,25,27,29,-1,-1,-1,-1,-1,-1,-1,-1,-1,-1,-1,-1,-1,-1,-1,-1],"loss_changes":[4.0442664E2,8.265886E1,5.728363E0,3.3806625E1,3.853094E1,1.2741759E1,2.815796E0,1.8868517E1,2.2478683E1,3.1386234E1,1.8242783E1,4.8447647E0,1.7488127E1,1.5133437E0,3.456726E-1,0E0,0E0,0E0,0E0,0E0,0E0,0E0,0E0,0E0,0E0,0E0,0E0,0E0,0E0,0E0,0E0],"parents":[2147483647,0,0,1,1,2,2,3,3,4,4,5,5,6,6,7,7,8,8,9,9,10,10,11,11,12,12,13,13,14,14],"right_children":[2,4,6,8,10,12,14,16,18,20,22,24,26,28,30,-1,-1,-1,-1,-1,-1,-1,-1,-1,-1,-1,-1,-1,-1,-1,-1],"split_conditions":[5.5210094E0,6.454043E-2,8.031129E0,5.3894985E-1,3.1693768E1,7.142321E-1,1.5E0,8.7904936E-1,1.2195159E0,1.2236995E0,1.2982735E-1,3.216989E0,8.521917E-1,1.767767E1,1.4739777E0,9.0469256E-2,-1.4569458E-1,1.9590116E-1,-3.4643933E-2,-7.8959405E-2,4.7330722E-2,1.7518058E-1,-8.9813754E-2,1.5493484E-1,-1.723942E-1,2.7932534E-1,-1.4768201E-1,-1.14012025E-1,1.8992877E-1,-1.683703E-1,-1.3536908E-1],"split_indices":[11,16,11,13,1,12,10,24,15,13,18,10,32,11,19,0,0,0,0,0,0,0,0,0,0,0,0,0,0,0,0],"split_type":[0,0,0,0,0,0,0,0,0,0,0,0,0,0,0,0,0,0,0,0,0,0,0,0,0,0,0,0,0,0,0],"sum_hessian":[2.705018E3,1.7508353E3,9.541827E2,8.3578705E2,9.150483E2,1.11562126E2,8.4262054E2,1.4945554E2,6.863315E2,7.1531464E2,1.9973363E2,7.893828E1,3.262385E1,4.1572375E0,8.384633E2,1.08217735E2,4.12378E1,6.4618396E2,4.0147533E1,3.1780728E2,3.975074E2,1.7336133E2,2.6372286E1,3.5493596E0,7.5388916E1,1.6091951E1,1.65319E1,1.6989787E0,2.4582589E0,7.815425E2,5.6920837E1],"tree_param":{"num_deleted":"0","num_feature":"40","num_nodes":"31","size_leaf_vector":"0"}},{"base_weights":[-1.672869E-3,3.2565254E-1,-4.707939E-1,4.150654E-1,-1.939453E-1,-1.8215635E-1,-5.484883E-1,5.1966137E-1,1.01861395E-1,1.3599017E-1,-3.138286E-1,1.5944336E-1,-3.690617E-1,1.866086E-1,-5.509716E-1,-6.374803E-1,5.4440194E-1,2.1882537E-1,-2.9844877E-1,-3.2171622E-1,6.53463E-1,6.53474E-1,-3.4073904E-1,4.9116623E-1,-3.2525688E-1,-4.3741086E-1,2.672893E-1,-3.3644935E-1,5.7218486E-1,-5.5480534E-1,-2.8810367E-1],"categories":[],"categories_nodes":[],"categories_segments":[],"categories_sizes":[],"default_left":[true,true,true,true,true,true,true,true,true,true,true,true,true,true,true,false,false,false,false,false,false,false,false,false,false,false,false,false,false,false,false],"id":18,"left_children":[1,3,5,7,9,11,13,15,17,19,21,23,25,27,29,-1,-1,-1,-1,-1,-1,-1,-1,-1,-1,-1,-1,-1,-1,-1,-1],"loss_changes":[4.1399234E2,7.385803E1,2.4748184E1,4.4343063E1,9.291515E0,1.5158348E1,1.6956482E0,2.9424225E1,1.6008892E1,1.5135773E1,4.6950474E0,1.371963E1,6.778507E0,9.3564E-1,7.1673584E-1,0E0,0E0,0E0,0E0,0E0,0E0,0E0,0E0,0E0,0E0,0E0,0E0,0E0,0E0,0E0,0E0],"parents":[2147483647,0,0,1,1,2,2,3,3,4,4,5,5,6,6,7,7,8,8,9,9,10,10,11,11,12,12,13,13,14,14],"right_children":[2,4,6,8,10,12,14,16,18,20,22,24,26,28,30,-1,-1,-1,-1,-1,-1,-1,-1,-1,-1,-1,-1,-1,-1,-1,-1],"split_conditions":[4.061553E0,1.5568627E-1,7.141085E0,8.4210753E-1,3.8568833E-1,6.6211924E-2,1.5E0,0E0,6.807117E-2,2.6435728E0,1.6903754E-2,6.481668E-1,3.6027756E1,1.3165402E0,1.5448933E0,-1.9124411E-1,1.6332059E-1,6.564762E-2,-8.953463E-2,-9.651487E-2,1.9603892E-1,1.960422E-1,-1.0222172E-1,1.4734988E-1,-9.757707E-2,-1.3122326E-1,8.01868E-2,-1.0093481E-1,1.7165546E-1,-1.664416E-1,-8.64311E-2],"split_indices":[21,26,21,25,25,26,20,20,28,24,17,25,30,17,27,0,0,0,0,0,0,0,0,0,0,0,0,0,0,0,0],"split_type":[0,0,0,0,0,0,0,0,0,0,0,0,0,0,0,0,0,0,0,0,0,0,0,0,0,0,0,0,0,0,0],"sum_hessian":[2.6940498E3,1.5870231E3,1.1070267E3,1.3541935E3,2.3282959E2,2.354958E2,8.7153094E2,1.01467773E3,3.3951572E2,6.2016693E1,1.708129E2,8.333484E1,1.5216096E2,2.6847155E0,8.688462E2,2.0722E1,9.9395575E2,2.6309662E2,7.64191E1,3.3109516E1,2.8907179E1,3.9931962E0,1.668197E2,4.9466938E1,3.3867905E1,1.376851E2,1.4475851E1,1.1933179E0,1.4913976E0,8.552623E2,1.3583871E1],"tree_param":{"num_deleted":"0","num_feature":"40","num_nodes":"31","size_leaf_vector":"0"}},{"base_weights":[-1.3360517E-3,3.2717195E-1,-4.721225E-1,4.1261727E-1,-1.590762E-1,-1.7595984E-1,-5.4894817E-1,5.145364E-1,1.0466876E-1,1.1756798E0,-1.8934588E-1,1.7262009E-1,-3.6270127E-1,2.149873E-1,-5.528947E-1,8.289582E-2,5.874695E-1,2.3033968E-1,-3.3127514E-1,-2.8517145E-1,2.4549744E-1,4.996665E-1,-2.997005E-1,-4.4178873E-1,2.2220768E-1,-3.9063063E-1,6.387373E-1,-5.5770844E-1,-2.4063715E-1],"categories":[],"categories_nodes":[],"categories_segments":[],"categories_sizes":[],"default_left":[true,true,true,true,true,true,true,true,true,false,true,true,true,true,true,false,false,false,false,false,false,false,false,false,false,false,false,false,false],"id":19,"left_children":[1,3,5,7,9,11,13,15,17,-1,19,21,23,25,27,-1,-1,-1,-1,-1,-1,-1,-1,-1,-1,-1,-1,-1,-1],"loss_changes":[4.169699E2,6.6043594E1,2.5115555E1,4.2346603E1,9.841078E0,1.5015298E1,2.7700806E0,3.189679E1,1.8549166E1,0E0,9.805897E0,1.2632358E1,7.0323486E0,1.5941474E0,1.1812439E0,0E0,0E0,0E0,0E0,0E0,0E0,0E0,0E0,0E0,0E0,0E0,0E0,0E0,0E0],"parents":[2147483647,0,0,1,1,2,2,3,3,4,4,5,5,6,6,7,7,8,8,10,10,11,11,12,12,13,13,14,14],"right_children":[2,4,6,8,10,12,14,16,18,-1,20,22,24,26,28,-1,-1,-1,-1,-1,-1,-1,-1,-1,-1,-1,-1,-1,-1],"split_conditions":[4.061553E0,1.5568627E-1,7.141085E0,8.4210753E-1,8.645853E-3,6.6211924E-2,1.5E0,6.132566E-1,6.807117E-2,3.5270396E-1,2.9470264E1,6.481668E-1,3.1764444E1,1.767767E1,1.5448933E0,2.4868747E-2,1.7624086E-1,6.910191E-2,-9.938254E-2,-8.555144E-2,7.3649235E-2,1.4989996E-1,-8.991015E-2,-1.3253662E-1,6.6662304E-2,-1.1718919E-1,1.916212E-1,-1.6731253E-1,-7.219115E-2],"split_indices":[31,36,31,35,27,36,30,33,38,0,1,35,20,31,37,0,0,0,0,0,0,0,0,0,0,0,0,0,0],"split_type":[0,0,0,0,0,0,0,0,0,0,0,0,0,0,0,0,0,0,0,0,0,0,0,0,0,0,0,0,0],"sum_hessian":[2.6940938E3,1.5870078E3,1.107086E3,1.3499424E3,2.3706541E2,2.2870804E2,8.7837805E2,1.01375696E3,3.361854E2,4.4178524E0,2.3264755E2,7.980887E1,1.4889919E2,4.2395816E0,8.741385E2,1.4684142E2,8.669155E2,2.6132428E2,7.486114E1,1.9091925E2,4.1728313E1,4.712232E1,3.268655E1,1.313796E2,1.751958E1,1.7774425E0,2.4621394E0,8.600934E2,1.4045066E1],"tree_param":{"num_deleted":"0","num_feature":"40","num_nodes":"29","size_leaf_vector":"0"}},{"base_weights":[8.905825E-4,2.458765E-1,-5.071072E-1,4.785803E-1,7.412863E-2,-2.792417E-1,-5.400119E-1,2.3030932E-1,6.138158E-1,3.3911273E-1,-7.814055E-2,-5.013465E-1,8.820776E-2,2.6035887E-1,-5.44716E-1,-5.9176177E-1,2.9654425E-1,6.4794385E-1,5.708026E-2,-6.0617536E-1,4.2328137E-1,2.1414451E-1,-2.11602E-1,1.7131414E-1,-5.500337E-1,5.58589E-1,-5.0815904E-1,-3.304509E-1,5.931003E-1,-5.5042547E-1,-4.527501E-1],"categories":[],"categories_nodes":[],"categories_segments":[],"categories_sizes":[],"default_left":[true,true,true,true,true,true,true,true,true,true,true,true,true,true,true,false,false,false,false,false,false,false,false,false,false,false,false,false,false,false,false],"id":20,"left_children":[1,3,5,7,9,11,13,15,17,19,21,23,25,27,29,-1,-1,-1,-1,-1,-1,-1,-1,-1,-1,-1,-1,-1,-1,-1,-1],"loss_changes":[3.0557056E2,6.6167725E1,5.838852E0,2.3469513E1,3.852924E1,8.439809E0,2.7659607E0,1.376501E1,8.601471E0,2.7978298E1,2.371674E1,2.1989365E0,1.1393991E1,1.129601E0,1.1479187E-1,0E0,0E0,0E0,0E0,0E0,0E0,0E0,0E0,0E0,0E0,0E0,0E0,0E0,0E0,0E0,0E0],"parents":[2147483647,0,0,1,1,2,2,3,3,4,4,5,5,6,6,7,7,8,8,9,9,10,10,11,11,12,12,13,13,14,14],"right_children":[2,4,6,8,10,12,14,16,18,20,22,24,26,28,30,-1,-1,-1,-1,-1,-1,-1,-1,-1,-1,-1,-1,-1,-1,-1,-1],"split_conditions":[5.242092E0,5.8410622E-2,8.031129E0,1.0208068E0,4.685856E-1,7.142321E-1,1.5E0,0E0,1.2220086E0,3.0851465E-1,7.273977E-1,3.216989E0,9.623207E-1,1.767767E1,1.4739777E0,-1.7752853E-1,8.896328E-2,1.9438316E-1,1.712408E-2,-1.8185261E-1,1.2698442E-1,6.4243354E-2,-6.34806E-2,5.1394243E-2,-1.6501011E-1,1.675767E-1,-1.5244772E-1,-9.913527E-2,1.779301E-1,-1.6512765E-1,-1.3582504E-1],"split_indices":[1,6,1,3,5,2,0,0,5,2,9,0,32,1,9,0,0,0,0,0,0,0,0,0,0,0,0,0,0,0,0],"split_type":[0,0,0,0,0,0,0,0,0,0,0,0,0,0,0,0,0,0,0,0,0,0,0,0,0,0,0,0,0,0,0],"sum_hessian":[2.4533206E3,1.6554722E3,7.978484E2,7.022273E2,9.532449E2,1.0187158E2,6.959768E2,2.4857883E2,4.5364844E2,3.47422E2,6.058229E2,6.3266033E1,3.8605553E1,3.7490983E0,6.922277E2,1.7943228E1,2.3063559E2,4.2729147E2,2.6356966E1,2.7898241E1,3.1952374E2,1.8972163E2,4.1610126E2,4.1001234E0,5.916591E1,2.1617895E1,1.6987656E1,1.3532233E0,2.395875E0,6.4707104E2,4.5156666E1],"tree_param":{"num_deleted":"0","num_feature":"40","num_nodes":"31","size_leaf_vector":"0"}},{"base_weights":[1.8247463E-3,2.4575764E-1,-5.053192E-1,3.2980195E-1,-2.0873481E-1,-2.8063637E-1,-5.367721E-1,4.3301946E-1,3.8649738E-2,-2.7418277E-1,4.403912E-1,-4.9968576E-1,1.7460881E-1,2.1474662E-1,-5.4126674E-1,2.6059464E-1,5.6631047E-1,1.4241356E-1,-3.8892055E-1,-3.8446757E-1,-3.8292937E-2,7.1169347E-1,-1.1384568E-1,4.356002E-1,-5.600043E-1,7.5879997E-1,-4.507424E-1,-3.5257453E-1,5.731789E-1,-5.495637E-1,-4.222746E-1],"categories":[],"categories_nodes":[],"categories_segments":[],"categories_sizes":[],"default_left":[true,true,true,true,true,true,true,true,true,true,true,true,true,true,true,false,false,false,false,false,false,false,false,false,false,false,false,false,false,false,false],"id":21,"left_children":[1,3,5,7,9,11,13,15,17,19,21,23,25,27,29,-1,-1,-1,-1,-1,-1,-1,-1,-1,-1,-1,-1,-1,-1,-1,-1],"loss_changes":[3.0378308E2,6.3403656E1,5.4854736E0,4.204747E1,1.1140003E1,1.0062452E1,2.4756775E0,2.3599777E1,1.6357439E1,6.1309357E0,3.7108283E0,4.06855E0,1.2484249E1,1.1921263E0,4.537201E-1,0E0,0E0,0E0,0E0,0E0,0E0,0E0,0E0,0E0,0E0,0E0,0E0,0E0,0E0,0E0,0E0],"parents":[2147483647,0,0,1,1,2,2,3,3,4,4,5,5,6,6,7,7,8,8,9,9,10,10,11,11,12,12,13,13,14,14],"right_children":[2,4,6,8,10,12,14,16,18,20,22,24,26,28,30,-1,-1,-1,-1,-1,-1,-1,-1,-1,-1,-1,-1,-1,-1,-1,-1],"split_conditions":[5.5210094E0,1.5568627E-1,8.031129E0,8.3723927E-1,4.005617E1,7.142321E-1,1.5E0,1.1881841E0,3.0811388E0,3.2977443E0,7.0483154E-1,3.216989E0,8.23301E-1,1.767767E1,1.4739777E0,7.817839E-2,1.6989315E-1,4.272407E-2,-1.1667617E-1,-1.1534028E-1,-1.1487882E-2,2.1350805E-1,-3.4153707E-2,1.3068007E-1,-1.680013E-1,2.2764E-1,-1.3522272E-1,-1.0577236E-1,1.7195368E-1,-1.6486911E-1,-1.2668239E-1],"split_indices":[11,16,11,15,21,12,10,13,11,14,15,10,22,11,19,0,0,0,0,0,0,0,0,0,0,0,0,0,0,0,0],"split_type":[0,0,0,0,0,0,0,0,0,0,0,0,0,0,0,0,0,0,0,0,0,0,0,0,0,0,0,0,0,0,0],"sum_hessian":[2.453621E3,1.657088E3,7.96533E2,1.3987135E3,2.5837442E2,9.903093E1,6.975021E2,1.0322716E3,3.6644196E2,2.3523457E2,2.3139849E1,6.679412E1,3.223681E1,3.86873E0,6.9363336E2,4.5135507E2,5.809165E2,2.9541647E2,7.102548E1,1.5986401E2,7.537056E1,1.5344519E1,7.795329E0,3.6697729E0,6.3124344E1,1.6556576E1,1.5680235E1,1.5042187E0,2.3645115E0,6.450385E2,4.8594883E1],"tree_param":{"num_deleted":"0","num_feature":"40","num_nodes":"31","size_leaf_vector":"0"}},{"base_weights":[-1.2741603E-3,2.4834508E-1,-5.07855E-1,4.6092176E-1,5.5297628E-2,-3.0265614E-1,-5.389345E-1,1.0720886E-1,5.681747E-1,1.4291501E-1,-3.6304253E-1,-5.133869E-1,1.3743004E-1,1.7092416E-1,-5.4174286E-1,3.125058E-1,-3.5232762E-1,6.225209E-1,-1.9784832E-1,3.4619335E-2,5.1858574E-1,-4.4987258E-1,2.6555604E-1,4.824733E-1,-5.620161E-1,6.851778E-1,-5.026916E-1,-3.1131068E-1,5.082204E-1,-5.5018926E-1,-4.1828898E-1],"categories":[],"categories_nodes":[],"categories_segments":[],"categories_sizes":[],"default_left":[true,true,true,true,true,true,true,true,true,true,true,true,true,true,true,false,false,false,false,false,false,false,false,false,false,false,false,false,false,false,false],"id":22,"left_children":[1,3,5,7,9,11,13,15,17,19,21,23,25,27,29,-1,-1,-1,-1,-1,-1,-1,-1,-1,-1,-1,-1,-1,-1,-1,-1],"loss_changes":[3.0994568E2,6.7357666E1,4.996872E0,2.9580338E1,3.1635109E1,1.0152062E1,1.490799E0,1.7376984E1,2.5072601E1,2.8996054E1,8.279228E0,3.841257E0,1.2962635E1,7.314146E-1,4.985962E-1,0E0,0E0,0E0,0E0,0E0,0E0,0E0,0E0,0E0,0E0,0E0,0E0,0E0,0E0,0E0,0E0],"parents":[2147483647,0,0,1,1,2,2,3,3,4,4,5,5,6,6,7,7,8,8,9,9,10,10,11,11,12,12,13,13,14,14],"right_children":[2,4,6,8,10,12,14,16,18,20,22,24,26,28,30,-1,-1,-1,-1,-1,-1,-1,-1,-1,-1,-1,-1,-1,-1,-1,-1],"split_conditions":[5.242092E0,6.454043E-2,8.031129E0,1.6068847E0,1.2982735E-1,7.142321E-1,1.5E0,1.1219519E0,1.2195159E0,3.1866886E1,1.7911668E0,-1.0884469E0,9.623207E-1,1.3165402E0,1.4739777E0,9.375175E-2,-1.0569829E-1,1.8675628E-1,-5.93545E-2,1.0385801E-2,1.5557572E-1,-1.3496178E-1,7.9666816E-2,1.44742E-1,-1.6860485E-1,2.0555335E-1,-1.508075E-1,-9.339321E-2,1.5246612E-1,-1.6505678E-1,-1.254867E-1],"split_indices":[21,26,21,24,28,22,20,14,25,11,22,4,12,17,29,0,0,0,0,0,0,0,0,0,0,0,0,0,0,0,0],"split_type":[0,0,0,0,0,0,0,0,0,0,0,0,0,0,0,0,0,0,0,0,0,0,0,0,0,0,0,0,0,0,0],"sum_hessian":[2.4490896E3,1.6409944E3,8.080952E2,7.8033307E2,8.606614E2,1.0770757E2,7.0038763E2,1.8202539E2,5.983077E2,7.121638E2,1.4849759E2,7.271986E1,3.498772E1,2.5240026E0,6.9786365E2,1.2603809E2,5.59873E1,5.588471E2,3.9460567E1,5.536529E2,1.5851096E2,1.3072456E2,1.7773016E1,2.9703178E0,6.974954E1,1.8816328E1,1.617139E1,1.0705172E0,1.4534854E0,6.499398E2,4.7923798E1],"tree_param":{"num_deleted":"0","num_feature":"40","num_nodes":"31","size_leaf_vector":"0"}},{"base_weights":[-1.4468596E-3,2.4842843E-1,-5.107454E-1,4.8044887E-1,8.1427574E-2,-2.9739916E-1,-5.4031265E-1,1.3881083E-1,5.942922E-1,-5.4888666E-1,1.4275919E-1,-4.856908E-1,6.7789346E-2,1.920515E-1,-5.4473746E-1,-6.54309E-1,2.5362197E-1,6.270219E-1,-2.9733503E-1,-5.969499E-1,-1.03743516E-1,3.8767263E-1,-2.580178E-2,4.5166153E-1,-5.5686355E-1,6.6102755E-1,-5.0051725E-1,-3.6902627E-1,5.723925E-1,-5.503635E-1,-4.573719E-1],"categories":[],"categories_nodes":[],"categories_segments":[],"categories_sizes":[],"default_left":[true,true,true,true,true,true,true,true,true,true,true,true,true,true,true,false,false,false,false,false,false,false,false,false,false,false,false,false,false,false,false],"id":23,"left_children":[1,3,5,7,9,11,13,15,17,19,21,23,25,27,29,-1,-1,-1,-1,-1,-1,-1,-1,-1,-1,-1,-1,-1,-1,-1,-1],"loss_changes":[3.1176227E2,6.3641167E1,4.925644E0,2.666159E1,3.706787E1,6.934516E0,2.3955688E0,1.5934732E1,1.5228851E1,1.7577953E0,3.60409E1,4.6777573E0,1.2138471E1,1.2750309E0,9.379578E-2,0E0,0E0,0E0,0E0,0E0,0E0,0E0,0E0,0E0,0E0,0E0,0E0,0E0,0E0,0E0,0E0],"parents":[2147483647,0,0,1,1,2,2,3,3,4,4,5,5,6,6,7,7,8,8,9,9,10,10,11,11,12,12,13,13,14,14],"right_children":[2,4,6,8,10,12,14,16,18,20,22,24,26,28,30,-1,-1,-1,-1,-1,-1,-1,-1,-1,-1,-1,-1,-1,-1,-1,-1],"split_conditions":[5.5210094E0,5.8410622E-2,8.031129E0,1.606347E0,3.0851465E-1,7.142321E-1,1.5E0,2.2554595E-2,1.3533314E0,2.420774E0,5.310314E-1,3.216989E0,8.23301E-1,1.767767E1,1.4739777E0,-1.962927E-1,7.6086596E-2,1.8810658E-1,-8.920051E-2,-1.7908497E-1,-3.1123055E-2,1.163018E-1,-7.7405344E-3,1.3549846E-1,-1.6705906E-1,1.9830827E-1,-1.5015519E-1,-1.1070789E-1,1.7171776E-1,-1.6510905E-1,-1.3721158E-1],"split_indices":[31,36,31,34,32,32,30,37,35,34,35,30,12,31,39,0,0,0,0,0,0,0,0,0,0,0,0,0,0,0,0],"split_type":[0,0,0,0,0,0,0,0,0,0,0,0,0,0,0,0,0,0,0,0,0,0,0,0,0,0,0,0,0,0,0],"sum_hessian":[2.447787E3,1.6424634E3,8.0532367E2,6.866284E2,9.55835E2,9.936935E1,7.059543E2,1.7217111E2,5.144573E2,8.405365E1,8.717814E2,6.534659E1,3.402276E1,3.9849982E0,7.019693E2,2.117745E1,1.5099367E2,4.9652762E2,1.792967E1,7.555478E1,8.498871E0,3.5486887E2,5.169125E2,4.2343106E0,6.1112278E1,1.6566418E1,1.745634E1,1.6219912E0,2.363007E0,6.5452094E2,4.7448338E1],"tree_param":{"num_deleted":"0","num_feature":"40","num_nodes":"31","size_leaf_vector":"0"}},{"base_weights":[1.0443681E-3,2.4134603E-1,-4.3348595E-1,3.1362802E-1,-1.6146766E-1,-1.595588E-1,-5.244407E-1,3.9438775E-1,1.4931003E-2,1.0911095E0,-1.9205315E-1,2.1414831E-1,-3.412547E-1,2.4016733E-1,-5.293285E-1,8.2025334E-2,4.636062E-1,1.6042532E-1,-4.0103102E-1,-9.847047E-2,-5.446888E-1,5.2459246E-1,-2.9269612E-1,-4.3270805E-1,1.3350452E-1,-3.0816773E-1,5.3740937E-1,-5.3514063E-1,-1.3507357E-1],"categories":[],"categories_nodes":[],"categories_segments":[],"categories_sizes":[],"default_left":[true,true,true,true,true,true,true,true,true,false,true,true,true,true,true,false,false,false,false,false,false,false,false,false,false,false,false,false,false],"id":24,"left_children":[1,3,5,7,9,11,13,15,17,-1,19,21,23,25,27,-1,-1,-1,-1,-1,-1,-1,-1,-1,-1,-1,-1,-1,-1],"loss_changes":[2.3222717E2,4.1746605E1,1.964772E1,2.9291595E1,8.581808E0,1.3575066E1,2.3474731E0,2.0631744E1,1.5770837E1,0E0,7.0143356E0,1.0485891E1,5.8837233E0,8.9280933E-1,1.2811279E0,0E0,0E0,0E0,0E0,0E0,0E0,0E0,0E0,0E0,0E0,0E0,0E0,0E0,0E0],"parents":[2147483647,0,0,1,1,2,2,3,3,4,4,5,5,6,6,7,7,8,8,10,10,11,11,12,12,13,13,14,14],"right_children":[2,4,6,8,10,12,14,16,18,-1,20,22,24,26,28,-1,-1,-1,-1,-1,-1,-1,-1,-1,-1,-1,-1,-1,-1],"split_conditions":[4.061553E0,1.5568627E-1,7.141085E0,5.7020646E-2,8.645853E-3,6.0333386E-2,1.5E0,5.918039E-1,9.611984E-2,3.2733285E-1,1.870948E0,6.481668E-1,3.9898305E0,1.767767E1,1.5448933E0,2.46076E-2,1.3908187E-1,4.81276E-2,-1.2030931E-1,-2.9541142E-2,-1.6340666E-1,1.5737775E-1,-8.780884E-2,-1.2981242E-1,4.005136E-2,-9.245032E-2,1.6122282E-1,-1.6054219E-1,-4.0522072E-2],"split_indices":[1,6,1,8,27,6,0,2,6,0,2,5,4,1,7,0,0,0,0,0,0,0,0,0,0,0,0,0,0],"split_type":[0,0,0,0,0,0,0,0,0,0,0,0,0,0,0,0,0,0,0,0,0,0,0,0,0,0,0,0,0],"sum_hessian":[2.2220051E3,1.431055E3,7.9094995E2,1.2135193E3,2.175358E2,1.9784796E2,5.93102E2,9.5499396E2,2.5852533E2,4.358695E0,2.1317711E2,6.466603E1,1.3318193E2,3.4616547E0,5.896403E2,1.7363145E2,7.813625E2,1.919869E2,6.6538445E1,1.694797E2,4.369739E1,4.0081158E1,2.4584877E1,1.1174496E2,2.143697E1,1.2039394E0,2.2577152E0,5.80722E2,8.918301E0],"tree_param":{"num_deleted":"0","num_feature":"40","num_nodes":"29","size_leaf_vector":"0"}},{"base_weights":[8.8213023E-4,2.085129E-1,-4.905139E-1,4.701144E-1,8.072865E-2,-2.567572E-1,-5.2562207E-1,9.279434E-2,5.8374786E-1,-5.9338707E-1,1.3154742E-1,-4.7954938E-1,1.4121147E-1,1.8508372E-1,-5.3038245E-1,2.6600227E-1,-6.2595934E-1,6.015045E-1,-2.5978446E-1,-6.1974174E-1,2.545156E-2,3.8346437E-1,3.715413E-6,3.835605E-1,-5.463681E-1,6.1994857E-1,-4.9917454E-1,-3.337705E-1,5.122228E-1,-5.404082E-1,-3.9366713E-1],"categories":[],"categories_nodes":[],"categories_segments":[],"categories_sizes":[],"default_left":[true,true,true,true,true,true,true,true,true,true,true,true,true,true,true,false,false,false,false,false,false,false,false,false,false,false,false,false,false,false,false],"id":25,"left_children":[1,3,5,7,9,11,13,15,17,19,21,23,25,27,29,-1,-1,-1,-1,-1,-1,-1,-1,-1,-1,-1,-1,-1,-1,-1,-1],"loss_changes":[2.27746E2,5.241645E1,5.3062744E0,2.201587E1,3.6234055E1,7.917292E0,2.0451965E0,1.5146557E1,6.078842E0,1.2253857E0,3.254969E1,3.495985E0,1.0287484E1,9.467294E-1,5.7115173E-1,0E0,0E0,0E0,0E0,0E0,0E0,0E0,0E0,0E0,0E0,0E0,0E0,0E0,0E0,0E0,0E0],"parents":[2147483647,0,0,1,1,2,2,3,3,4,4,5,5,6,6,7,7,8,8,9,9,10,10,11,11,12,12,13,13,14,14],"right_children":[2,4,6,8,10,12,14,16,18,20,22,24,26,28,30,-1,-1,-1,-1,-1,-1,-1,-1,-1,-1,-1,-1,-1,-1,-1,-1],"split_conditions":[5.5210094E0,4.9278557E-2,8.031129E0,1.2170601E0,1.8045807E-1,7.142321E-1,1.5E0,8.7904936E-1,1.4150175E0,4.174161E-1,7.117466E-1,3.216989E0,8.521917E-1,1.767767E1,1.4739777E0,7.980068E-2,-1.8778782E-1,1.8045136E-1,-7.793534E-2,-1.8592253E-1,7.635468E-3,1.1503931E-1,1.114624E-6,1.1506816E-1,-1.6391045E-1,1.8598458E-1,-1.4975236E-1,-1.0013116E-1,1.5366685E-1,-1.6212246E-1,-1.18100144E-1],"split_indices":[11,16,11,14,12,12,10,24,15,26,19,10,2,11,19,0,0,0,0,0,0,0,0,0,0,0,0,0,0,0,0],"split_type":[0,0,0,0,0,0,0,0,0,0,0,0,0,0,0,0,0,0,0,0,0,0,0,0,0,0,0,0,0,0,0],"sum_hessian":[2.2301685E3,1.5681498E3,6.620185E2,5.1373865E2,1.0544111E3,8.753138E1,5.744871E2,1.1932764E2,3.94411E2,7.3167046E1,9.8124414E2,5.5984787E1,3.1546593E1,3.5703778E0,5.7091675E2,9.666327E1,2.2664364E1,3.865607E2,7.850322E0,7.017694E1,2.990106E0,3.3595255E2,6.4529156E2,3.6820998E0,5.230269E1,1.8069893E1,1.34767E1,1.372799E0,2.1975787E0,5.291592E2,4.175756E1],"tree_param":{"num_deleted":"0","num_feature":"40","num_nodes":"31","size_leaf_vector":"0"}},{"base_weights":[-9.53467E-4,2.1417964E-1,-4.929031E-1,4.2652538E-1,6.16214E-2,-2.770097E-1,-5.2789813E-1,1.7344889E-1,5.777076E-1,-4.8579517E-1,1.23460725E-1,-4.9412078E-1,1.18182614E-1,1.5567556E-1,-5.3097147E-1,-3.2239485E-1,2.6937157E-1,6.2495404E-1,1.399815E-1,-5.632782E-1,2.3858859E-1,3.647149E-1,-2.1412967E-2,3.8481182E-1,-5.478514E-1,6.0769165E-1,-5.02243E-1,-2.9290774E-1,4.6317187E-1,-5.411001E-1,-3.888724E-1],"categories":[],"categories_nodes":[],"categories_segments":[],"categories_sizes":[],"default_left":[true,true,true,true,true,true,true,true,true,true,true,true,true,true,true,false,false,false,false,false,false,false,false,false,false,false,false,false,false,false,false],"id":26,"left_children":[1,3,5,7,9,11,13,15,17,19,21,23,25,27,29,-1,-1,-1,-1,-1,-1,-1,-1,-1,-1,-1,-1,-1,-1,-1,-1],"loss_changes":[2.3489874E2,4.9998283E1,4.9557037E0,2.4594276E1,3.0519018E1,8.320678E0,1.3011475E0,1.16351595E1,8.259903E0,5.2717133E0,2.8292032E1,3.1550732E0,1.092021E1,6.004148E-1,6.209259E-1,0E0,0E0,0E0,0E0,0E0,0E0,0E0,0E0,0E0,0E0,0E0,0E0,0E0,0E0,0E0,0E0],"parents":[2147483647,0,0,1,1,2,2,3,3,4,4,5,5,6,6,7,7,8,8,9,9,10,10,11,11,12,12,13,13,14,14],"right_children":[2,4,6,8,10,12,14,16,18,20,22,24,26,28,30,-1,-1,-1,-1,-1,-1,-1,-1,-1,-1,-1,-1,-1,-1,-1,-1],"split_conditions":[5.242092E0,5.8410622E-2,8.031129E0,1.0208068E0,5.6870043E-1,7.142321E-1,1.5E0,1.7071068E0,1.0844221E0,3.7200275E1,4.685856E-1,-1.0884469E0,9.623207E-1,1.3165402E0,1.4739777E0,-9.671846E-2,8.081147E-2,1.8748622E-1,4.199445E-2,-1.6898346E-1,7.157658E-2,1.0941447E-1,-6.42389E-3,1.1544355E-1,-1.6435543E-1,1.823075E-1,-1.506729E-1,-8.787233E-2,1.3895157E-1,-1.6233003E-1,-1.1666173E-1],"split_indices":[21,26,21,23,23,22,20,21,25,10,25,4,2,17,29,0,0,0,0,0,0,0,0,0,0,0,0,0,0,0,0],"split_type":[0,0,0,0,0,0,0,0,0,0,0,0,0,0,0,0,0,0,0,0,0,0,0,0,0,0,0,0,0,0,0],"sum_hessian":[2.2174905E3,1.5432019E3,6.742886E2,6.4442755E2,8.9877435E2,9.529629E1,5.789923E2,2.4180211E2,4.0262546E2,9.052951E1,8.082449E2,6.134448E1,3.395181E1,2.3692615E0,5.7662305E2,3.8812332E1,2.0298978E2,3.6301526E2,3.96102E1,8.198271E1,8.5468025E0,3.02681E2,5.0556384E2,3.1790628E0,5.8165417E1,1.898968E1,1.4962127E1,9.828697E-1,1.3863918E0,5.3563586E2,4.0987206E1],"tree_param":{"num_deleted":"0","num_feature":"40","num_nodes":"31","size_leaf_vector":"0"}},{"base_weights":[-9.799348E-4,2.1405649E-1,-4.9640608E-1,4.2301378E-1,6.914719E-2,-2.7271372E-1,-5.2960205E-1,1.8499526E-1,5.688928E-1,-5.77046E-1,1.1684613E-1,-4.669218E-1,5.9274994E-2,1.7810208E-1,-5.344066E-1,-5.9539557E-1,2.456486E-1,6.0403305E-1,2.3204425E-2,-5.9311414E-1,3.0427966E-1,3.6324915E-1,-9.311487E-3,3.9116463E-1,-5.440662E-1,5.7187146E-1,-4.994263E-1,-3.459319E-1,5.2204007E-1,-5.4114056E-1,-4.3346784E-1],"categories":[],"categories_nodes":[],"categories_segments":[],"categories_sizes":[],"default_left":[true,true,true,true,true,true,true,true,true,true,true,true,true,true,true,false,false,false,false,false,false,false,false,false,false,false,false,false,false,false,false],"id":27,"left_children":[1,3,5,7,9,11,13,15,17,19,21,23,25,27,29,-1,-1,-1,-1,-1,-1,-1,-1,-1,-1,-1,-1,-1,-1,-1,-1],"loss_changes":[2.3651566E2,4.6847923E1,4.845291E0,2.1900383E1,2.828139E1,5.759092E0,2.0810852E0,1.1615607E1,7.5116196E0,1.0739288E0,2.6527836E1,3.9329062E0,9.935792E0,1.0256094E0,1.5992737E-1,0E0,0E0,0E0,0E0,0E0,0E0,0E0,0E0,0E0,0E0,0E0,0E0,0E0,0E0,0E0,0E0],"parents":[2147483647,0,0,1,1,2,2,3,3,4,4,5,5,6,6,7,7,8,8,9,9,10,10,11,11,12,12,13,13,14,14],"right_children":[2,4,6,8,10,12,14,16,18,20,22,24,26,28,30,-1,-1,-1,-1,-1,-1,-1,-1,-1,-1,-1,-1,-1,-1,-1,-1],"split_conditions":[5.5210094E0,5.8410622E-2,8.031129E0,1.0208068E0,2.2129144E-1,7.142321E-1,1.5E0,0E0,1.2220086E0,7.348464E0,7.260747E-1,3.216989E0,8.521917E-1,1.767767E1,1.4739777E0,-1.7861867E-1,7.369458E-2,1.8120992E-1,6.961328E-3,-1.7793424E-1,9.12839E-2,1.0897475E-1,-2.7934462E-3,1.1734939E-1,-1.6321987E-1,1.7156145E-1,-1.498279E-1,-1.0377957E-1,1.5661202E-1,-1.6234218E-1,-1.3004036E-1],"split_indices":[31,36,31,33,32,32,30,30,35,13,39,30,2,31,39,0,0,0,0,0,0,0,0,0,0,0,0,0,0,0,0],"split_type":[0,0,0,0,0,0,0,0,0,0,0,0,0,0,0,0,0,0,0,0,0,0,0,0,0,0,0,0,0,0,0],"sum_hessian":[2.2180842E3,1.5471305E3,6.7095374E2,6.3276807E2,9.1436237E2,8.789374E1,5.8306E2,2.4131035E2,3.9145773E2,6.209145E1,8.5227094E2,5.519759E1,3.269615E1,3.6884246E0,5.793716E2,1.6766697E1,2.2454366E2,3.6767398E2,2.3783743E1,6.1300846E1,7.906048E-1,2.879622E2,5.643087E2,4.2173166E0,5.0980274E1,1.7039345E1,1.5656807E1,1.4592586E0,2.229166E0,5.3904877E2,4.0322826E1],"tree_param":{"num_deleted":"0","num_feature":"40","num_nodes":"31","size_leaf_vector":"0"}},{"base_weights":[3.1408458E-4,1.8219025E-1,-4.836249E-1,4.2378706E-1,6.691469E-2,-2.4352282E-1,-5.2089334E-1,1.9293778E-1,5.837142E-1,-5.869175E-1,1.188152E-1,-4.6290484E-1,6.290829E-2,1.9720635E-1,-5.2609503E-1,-5.6945825E-1,2.6280007E-1,6.3608605E-1,1.0648132E-1,-6.109252E-1,6.861882E-2,3.7833858E-1,1.5661849E-2,4.219424E-1,-5.304115E-1,5.3686684E-1,-4.9031815E-1,-2.9552048E-1,4.757852E-1,-5.3438824E-1,-3.9831677E-1],"categories":[],"categories_nodes":[],"categories_segments":[],"categories_sizes":[],"default_left":[true,true,true,true,true,true,true,true,true,true,true,true,true,true,true,false,false,false,false,false,false,false,false,false,false,false,false,false,false,false,false],"id":28,"left_children":[1,3,5,7,9,11,13,15,17,19,21,23,25,27,29,-1,-1,-1,-1,-1,-1,-1,-1,-1,-1,-1,-1,-1,-1,-1,-1],"loss_changes":[1.7828047E2,4.0973396E1,4.824188E0,1.74374E1,3.3931313E1,5.1531143E0,1.8895416E0,1.05912285E1,6.9386063E0,1.19948E0,2.4765198E1,2.8842754E0,8.832564E0,7.123748E-1,2.9040527E-1,0E0,0E0,0E0,0E0,0E0,0E0,0E0,0E0,0E0,0E0,0E0,0E0,0E0,0E0,0E0,0E0],"parents":[2147483647,0,0,1,1,2,2,3,3,4,4,5,5,6,6,7,7,8,8,9,9,10,10,11,11,12,12,13,13,14,14],"right_children":[2,4,6,8,10,12,14,16,18,20,22,24,26,28,30,-1,-1,-1,-1,-1,-1,-1,-1,-1,-1,-1,-1,-1,-1,-1,-1],"split_conditions":[5.5210094E0,4.9278557E-2,8.031129E0,9.267802E-1,1.8045807E-1,7.142321E-1,1.5E0,0E0,1.0538096E0,4.174161E-1,5.690683E-1,3.216989E0,8.23301E-1,1.767767E1,1.4739777E0,-1.7083748E-1,7.8840025E-2,1.9082582E-1,3.1944398E-2,-1.8327756E-1,2.0585647E-2,1.1350158E-1,4.698555E-3,1.2658273E-1,-1.5912345E-1,1.6106007E-1,-1.4709546E-1,-8.865615E-2,1.4273557E-1,-1.6031648E-1,-1.19495034E-1],"split_indices":[1,6,1,2,2,2,0,0,5,36,9,0,22,1,9,0,0,0,0,0,0,0,0,0,0,0,0,0,0,0,0],"split_type":[0,0,0,0,0,0,0,0,0,0,0,0,0,0,0,0,0,0,0,0,0,0,0,0,0,0,0,0,0,0,0],"sum_hessian":[2.0235227E3,1.471224E3,5.5229865E2,4.7436472E2,9.968593E2,7.5221E1,4.7707764E2,1.9503903E2,2.793257E2,7.255224E1,9.2430707E2,4.3539383E1,3.1681614E1,3.1655025E0,4.7391214E2,1.5771876E1,1.7926715E2,2.5140363E2,2.792207E1,7.005467E1,2.497562E0,2.621348E2,6.621723E2,2.7140758E0,4.082531E1,1.7079168E1,1.4602446E1,1.1213458E0,2.0441568E0,4.4204013E2,3.1871996E1],"tree_param":{"num_deleted":"0","num_feature":"40","num_nodes":"31","size_leaf_vector":"0"}},{"base_weights":[7.5844495E-4,1.710461E-1,-5.0255424E-1,3.8030222E-1,3.299848E-2,-5.288689E-1,-3.937418E-1,1.6808312E-1,5.222345E-1,2.5659478E-1,-9.323134E-2,-3.9811125E-1,-5.3510684E-1,2.6773007E0,-4.5037642E-1,-5.84732E-1,2.2309999E-1,5.369381E-1,-4.905818E-1,-6.487386E-2,4.2017084E-1,-1.8623544E-1,2.3924518E-1,-5.4080236E-1,1.5264794E-1,-1.6423682E-2,-5.306373E-1],"categories":[],"categories_nodes":[],"categories_segments":[],"categories_sizes":[],"default_left":[true,true,true,true,true,true,true,true,true,true,true,true,false,false,true,false,false,false,false,false,false,false,false,false,false,false,false],"id":29,"left_children":[1,3,5,7,9,11,13,15,17,19,21,23,-1,-1,25,-1,-1,-1,-1,-1,-1,-1,-1,-1,-1,-1,-1],"loss_changes":[1.7439795E2,4.390742E1,1.264679E0,1.8112244E1,2.5910172E1,1.2245941E-1,1.93096E1,1.02211075E1,5.6484146E0,1.7443733E1,1.8193905E1,1.8613691E0,0E0,0E0,3.5807896E0,0E0,0E0,0E0,0E0,0E0,0E0,0E0,0E0,0E0,0E0,0E0,0E0],"parents":[2147483647,0,0,1,1,2,2,3,3,4,4,5,5,6,6,7,7,8,8,9,9,10,10,11,11,14,14],"right_children":[2,4,6,8,10,12,14,16,18,20,22,24,-1,-1,26,-1,-1,-1,-1,-1,-1,-1,-1,-1,-1,-1,-1],"split_conditions":[5.242092E0,5.8410622E-2,1.2417412E0,1.0244242E0,4.685856E-1,6.36384E0,1.2438266E0,0E0,5.751072E0,2.3176708E0,3.9843054E0,6.203659E0,-1.6053206E-1,8.0319023E-1,8.031129E0,-1.754196E-1,6.693E-2,1.6108143E-1,-1.4717455E-1,-1.9462159E-2,1.2605126E-1,-5.5870634E-2,7.177356E-2,-1.6224071E-1,4.5794383E-2,-4.927105E-3,-1.591912E-1],"split_indices":[10,16,17,13,15,11,17,10,11,14,14,10,0,0,11,0,0,0,0,0,0,0,0,0,0,0,0],"split_type":[0,0,0,0,0,0,0,0,0,0,0,0,0,0,0,0,0,0,0,0,0,0,0,0,0,0,0],"sum_hessian":[2.0327906E3,1.5193899E3,5.134007E2,6.032354E2,9.1615454E2,4.1031238E2,1.03088326E2,2.4263237E2,3.6060303E2,3.302088E2,5.8594574E2,2.1634588E1,3.8867776E2,1.0287837E0,1.0205954E2,1.5868597E1,2.2676378E2,3.55906E2,4.697021E0,1.11562836E2,2.1864598E2,4.5820993E2,1.27735825E2,1.7197203E1,4.4373865E0,1.6117956E1,8.594159E1],"tree_param":{"num_deleted":"0","num_feature":"40","num_nodes":"27","size_leaf_vector":"0"}},{"base_weights":[-4.5458053E-4,1.8717013E-1,-4.7986597E-1,2.6014805E-1,-2.0397152E-1,-2.5425282E-1,-5.1878417E-1,3.4954086E-1,1.7999751E-2,-2.8506708E-1,1.3839494E-1,-4.7744337E-1,1.0650705E-1,1.21902846E-1,-5.2198064E-1,2.1528135E-1,5.0478506E-1,-4.9975294E-1,1.0743895E-1,5.2572256E-1,-3.26326E-1,5.901176E-1,-9.959148E-2,3.0901593E-1,-5.3918564E-1,5.686706E-1,-4.8558626E-1,-2.80426E-1,4.0911373E-1,-5.341399E-1,-3.5868412E-1],"categories":[],"categories_nodes":[],"categories_segments":[],"categories_sizes":[],"default_left":[true,true,true,true,true,true,true,true,true,true,true,true,true,true,true,false,false,false,false,false,false,false,false,false,false,false,false,false,false,false,false],"id":30,"left_children":[1,3,5,7,9,11,13,15,17,19,21,23,25,27,29,-1,-1,-1,-1,-1,-1,-1,-1,-1,-1,-1,-1,-1,-1,-1,-1],"loss_changes":[1.8125713E2,4.139414E1,4.8449554E0,2.642392E1,6.3777647E0,6.923152E0,1.0516815E0,1.8477707E1,1.534768E1,6.3567963E0,4.831077E0,2.7358809E0,9.426631E0,4.8516697E-1,7.6197815E-1,0E0,0E0,0E0,0E0,0E0,0E0,0E0,0E0,0E0,0E0,0E0,0E0,0E0,0E0,0E0,0E0],"parents":[2147483647,0,0,1,1,2,2,3,3,4,4,5,5,6,6,7,7,8,8,9,9,10,10,11,11,12,12,13,13,14,14],"right_children":[2,4,6,8,10,12,14,16,18,20,22,24,26,28,30,-1,-1,-1,-1,-1,-1,-1,-1,-1,-1,-1,-1,-1,-1,-1,-1],"split_conditions":[5.242092E0,1.5568627E-1,8.031129E0,8.3723927E-1,2.9470264E1,7.142321E-1,1.5E0,1.3665125E0,6.3554025E-1,2.8788287E-2,4.685744E-1,3.216989E0,8.521917E-1,1.3165402E0,1.4739777E0,6.458441E-2,1.5143552E-1,-1.4992589E-1,3.223169E-2,1.5771678E-1,-9.7897805E-2,1.7703527E-1,-2.9877445E-2,9.270478E-2,-1.617557E-1,1.7060117E-1,-1.4567588E-1,-8.41278E-2,1.2273412E-1,-1.6024196E-1,-1.0760524E-1],"split_indices":[21,26,21,25,31,22,20,23,22,7,25,20,32,17,29,0,0,0,0,0,0,0,0,0,0,0,0,0,0,0,0],"split_type":[0,0,0,0,0,0,0,0,0,0,0,0,0,0,0,0,0,0,0,0,0,0,0,0,0,0,0,0,0,0,0],"sum_hessian":[2.0131018E3,1.4472922E3,5.658096E2,1.220003E3,2.2728922E2,8.43509E1,4.8145868E2,8.90732E2,3.2927103E2,1.8389726E2,4.339196E1,5.1911488E1,3.243941E1,2.2058027E0,4.7925287E2,4.789282E2,4.1180377E2,4.782578E1,2.8144525E2,8.336307E0,1.7556096E2,1.446199E1,2.892997E1,3.487212E0,4.842428E1,1.8240889E1,1.41985235E1,9.286128E-1,1.27719E0,4.4392676E2,3.532612E1],"tree_param":{"num_deleted":"0","num_feature":"40","num_nodes":"31","size_leaf_vector":"0"}},{"base_weights":[-6.248108E-4,1.8527918E-1,-4.8400116E-1,2.541992E-1,-1.7572272E-1,-2.5282472E-1,-5.2080643E-1,3.327222E-1,-1.4749412E-2,-2.1800141E-1,5.6991154E-1,-4.5155996E-1,4.9918626E-2,1.5368016E-1,-5.2585447E-1,-3.3053327E-2,3.8200068E-1,-6.2774307E-1,5.985893E-2,-1.2526532E-1,-5.70668E-1,7.474991E-1,5.5309054E-2,3.4050548E-1,-5.339382E-1,4.703567E-1,-5.0473803E-1,-3.264971E-1,4.7048244E-1,-5.33986E-1,-4.0742365E-1],"categories":[],"categories_nodes":[],"categories_segments":[],"categories_sizes":[],"default_left":[true,true,true,true,true,true,true,true,true,true,true,true,true,true,true,false,false,false,false,false,false,false,false,false,false,false,false,false,false,false,false],"id":31,"left_children":[1,3,5,7,9,11,13,15,17,19,21,23,25,27,29,-1,-1,-1,-1,-1,-1,-1,-1,-1,-1,-1,-1,-1,-1,-1,-1],"loss_changes":[1.817151E2,3.638174E1,4.647476E0,2.5912422E1,7.523595E0,4.780895E0,1.7274017E0,1.7128578E1,1.2760235E1,7.216692E0,1.1349382E0,3.303627E0,7.7563596E0,8.1783044E-1,2.4493408E-1,0E0,0E0,0E0,0E0,0E0,0E0,0E0,0E0,0E0,0E0,0E0,0E0,0E0,0E0,0E0,0E0],"parents":[2147483647,0,0,1,1,2,2,3,3,4,4,5,5,6,6,7,7,8,8,9,9,10,10,11,11,12,12,13,13,14,14],"right_children":[2,4,6,8,10,12,14,16,18,20,22,24,26,28,30,-1,-1,-1,-1,-1,-1,-1,-1,-1,-1,-1,-1,-1,-1,-1,-1],"split_conditions":[5.5210094E0,1.5568627E-1,8.031129E0,5.7020646E-2,4.765057E1,7.142321E-1,1.5E0,3.53505E-2,3.2328176E-1,1.870948E0,6.6676545E-1,3.216989E0,8.521917E-1,1.767767E1,1.4739777E0,-9.915998E-3,1.1460021E-1,-1.8832293E-1,1.795768E-2,-3.7579596E-2,-1.712004E-1,2.2424974E-1,1.6592717E-2,1.0215165E-1,-1.6018148E-1,1.4110702E-1,-1.5142141E-1,-9.794914E-2,1.4114474E-1,-1.601958E-1,-1.22227095E-1],"split_indices":[31,36,31,38,21,32,30,6,32,32,35,30,12,31,39,0,0,0,0,0,0,0,0,0,0,0,0,0,0,0,0],"split_type":[0,0,0,0,0,0,0,0,0,0,0,0,0,0,0,0,0,0,0,0,0,0,0,0,0,0,0,0,0,0,0],"sum_hessian":[2.0201687E3,1.4594779E3,5.606908E2,1.22576E3,2.3371794E2,7.80874E1,4.8260336E2,9.4857446E2,2.7718555E2,2.218465E2,1.1871435E1,4.6844723E1,3.1242678E1,3.3663807E0,4.79237E2,1.12661385E2,8.35913E2,2.927161E1,2.4791393E2,1.7672948E2,4.511703E1,8.489249E0,3.3821867E0,4.1178856E0,4.2726837E1,1.7858017E1,1.338466E1,1.3259842E0,2.0403967E0,4.45163E2,3.4074005E1],"tree_param":{"num_deleted":"0","num_feature":"40","num_nodes":"31","size_leaf_vector":"0"}},{"base_weights":[-1.2483935E-4,1.5758777E-1,-4.7200504E-1,2.7892774E-1,-2.767263E-2,-2.2616047E-1,-5.128725E-1,9.7931445E-2,3.9104706E-1,-1.4881673E-1,2.2538768E-1,7.2433084E-1,-2.92105E-1,1.8087845E-1,-5.184746E-1,2.3760846E-1,-2.539234E-1,4.2915282E-1,-3.2698366E-1,-7.283523E-2,-6.3281715E-1,3.0607828E-1,-3.4606037E-1,1.0542636E0,-2.6364198E-1,-4.51033E-1,-4.403012E-2,-2.8038782E-1,4.418922E-1,-5.284513E-1,-3.7073177E-1],"categories":[],"categories_nodes":[],"categories_segments":[],"categories_sizes":[],"default_left":[true,true,true,true,true,true,true,true,true,true,true,true,true,true,true,false,false,false,false,false,false,false,false,false,false,false,false,false,false,false,false],"id":32,"left_children":[1,3,5,7,9,11,13,15,17,19,21,23,25,27,29,-1,-1,-1,-1,-1,-1,-1,-1,-1,-1,-1,-1,-1,-1,-1,-1],"loss_changes":[1.3771008E2,3.1184128E1,4.5410767E0,1.6969444E1,1.6888063E1,4.464964E0,1.6354065E0,1.588119E1,1.4291107E1,1.3648904E1,8.331239E0,1.8067069E0,2.5100737E0,5.957139E-1,3.8446808E-1,0E0,0E0,0E0,0E0,0E0,0E0,0E0,0E0,0E0,0E0,0E0,0E0,0E0,0E0,0E0,0E0],"parents":[2147483647,0,0,1,1,2,2,3,3,4,4,5,5,6,6,7,7,8,8,9,9,10,10,11,11,12,12,13,13,14,14],"right_children":[2,4,6,8,10,12,14,16,18,20,22,24,26,28,30,-1,-1,-1,-1,-1,-1,-1,-1,-1,-1,-1,-1,-1,-1,-1,-1],"split_conditions":[5.5210094E0,7.159179E-1,8.031129E0,2.3176708E0,3.3058105E0,1.0860159E-2,1.5E0,8.597793E-2,2.7689606E-1,3.0811388E0,2.0575145E-1,4.6157756E0,3.3349633E0,1.767767E1,1.4739777E0,7.128254E-2,-7.6177016E-2,1.2874585E-1,-9.8095104E-2,-2.185057E-2,-1.8984516E-1,9.182349E-2,-1.0381811E-1,3.1627908E-1,-7.90926E-2,-1.353099E-1,-1.3209037E-2,-8.411635E-2,1.3256767E-1,-1.585354E-1,-1.1121953E-1],"split_indices":[1,5,1,4,4,7,0,6,6,0,6,0,4,1,9,0,0,0,0,0,0,0,0,0,0,0,0,0,0,0,0],"split_type":[0,0,0,0,0,0,0,0,0,0,0,0,0,0,0,0,0,0,0,0,0,0,0,0,0,0,0,0,0,0,0],"sum_hessian":[1.8484087E3,1.3858827E3,4.6252603E2,8.3710114E2,5.4878156E2,6.685902E1,3.9566702E2,3.2091522E2,5.161859E2,3.713988E2,1.7738274E2,3.6899529E0,6.3169067E1,2.918813E0,3.927482E2,2.2995421E2,9.096101E1,4.905546E2,2.5631327E1,3.219997E2,4.93991E1,1.5584169E2,2.1541054E1,2.7158866E0,9.7406614E-1,3.800391E1,2.5165157E1,1.0279617E0,1.8908513E0,3.654905E2,2.7257677E1],"tree_param":{"num_deleted":"0","num_feature":"40","num_nodes":"31","size_leaf_vector":"0"}},{"base_weights":[1.2765583E-3,1.4890173E-1,-4.9107832E-1,2.1723914E-1,-2.037467E-1,-5.211791E-1,-3.709766E-1,3.004027E-1,-2.1057194E-3,-1.2098113E-1,-5.20005E-1,-3.6902907E-1,-5.2897406E-1,1.7958823E0,-4.3461293E-1,1.4250651E-1,3.9239445E-1,-4.737306E-1,7.63057E-2,-1.6662166E-2,-4.7901735E-1,-5.5758804E-1,3.737745E-1,-5.220823E-1,1.3905498E-1,-1.6662585E-2,-5.2359116E-1],"categories":[],"categories_nodes":[],"categories_segments":[],"categories_sizes":[],"default_left":[true,true,true,true,true,true,true,true,true,true,true,true,false,false,true,false,false,false,false,false,false,false,false,false,false,false,false],"id":33,"left_children":[1,3,5,7,9,11,13,15,17,19,21,23,-1,-1,25,-1,-1,-1,-1,-1,-1,-1,-1,-1,-1,-1,-1],"loss_changes":[1.3531027E2,3.4558823E1,1.3590851E0,2.1893974E1,6.0359325E0,2.0909882E-1,1.3125484E1,1.2584618E1,1.22746525E1,6.9381504E0,1.821641E0,1.6217332E0,0E0,0E0,3.2556057E0,0E0,0E0,0E0,0E0,0E0,0E0,0E0,0E0,0E0,0E0,0E0,0E0],"parents":[2147483647,0,0,1,1,2,2,3,3,4,4,5,5,6,6,7,7,8,8,9,9,10,10,11,11,14,14],"right_children":[2,4,6,8,10,12,14,16,18,20,22,24,-1,-1,26,-1,-1,-1,-1,-1,-1,-1,-1,-1,-1,-1,-1],"split_conditions":[5.242092E0,1.5568627E-1,1.2417412E0,8.3723927E-1,3.8027756E0,6.36384E0,1.2438266E0,3.8027756E0,6.3554025E-1,1.870948E0,5.173633E1,6.203659E0,-1.5869223E-1,5.387647E-1,8.031129E0,4.2751953E-2,1.1771834E-1,-1.4211918E-1,2.2891711E-2,-4.99865E-3,-1.437052E-1,-1.6727641E-1,1.12132356E-1,-1.566247E-1,4.1716497E-2,-4.9987757E-3,-1.5707736E-1],"split_indices":[10,16,17,15,11,11,17,31,12,12,0,10,0,0,11,0,0,0,0,0,0,0,0,0,0,0,0],"split_type":[0,0,0,0,0,0,0,0,0,0,0,0,0,0,0,0,0,0,0,0,0,0,0,0,0,0,0],"sum_hessian":[1.8596185E3,1.4311942E3,4.284244E2,1.1991942E3,2.3199992E2,3.3989734E2,8.852706E1,8.6925195E2,3.299423E2,1.8497424E2,4.702568E1,1.8921E1,3.2097635E2,1.7490695E0,8.677799E1,3.209379E2,5.483141E2,4.6316807E1,2.836255E2,1.440498E2,4.092443E1,4.548903E1,1.5366492E0,1.4519615E1,4.4013834E0,1.5440033E1,7.133796E1],"tree_param":{"num_deleted":"0","num_feature":"40","num_nodes":"27","size_leaf_vector":"0"}},{"base_weights":[-4.6319765E-5,1.6297328E-1,-4.675162E-1,3.8595536E-1,5.512777E-2,-2.3519796E-1,-5.102657E-1,1.4728571E-1,5.7024866E-1,-5.653732E-1,9.8171294E-2,-4.6153417E-1,9.6186765E-2,1.0446752E-1,-5.137322E-1,-5.850972E-1,2.1794325E-1,6.285863E-1,8.180365E-2,-6.067554E-1,-6.513526E-2,3.3171177E-1,-2.6138099E-2,3.0779463E-1,-5.275933E-1,4.7923958E-1,-4.7074166E-1,-2.7108294E-1,3.786559E-1,-5.2835304E-1,-3.2690284E-1],"categories":[],"categories_nodes":[],"categories_segments":[],"categories_sizes":[],"default_left":[true,true,true,true,true,true,true,true,true,true,true,true,true,true,true,false,false,false,false,false,false,false,false,false,false,false,false,false,false,false,false],"id":34,"left_children":[1,3,5,7,9,11,13,15,17,19,21,23,25,27,29,-1,-1,-1,-1,-1,-1,-1,-1,-1,-1,-1,-1,-1,-1,-1,-1],"loss_changes":[1.4032764E2,3.2810745E1,4.608513E0,1.948507E1,2.4664524E1,5.7334876E0,9.0875244E-1,1.0228817E1,7.0922318E0,1.2008324E0,2.5047379E1,2.461585E0,7.0899878E0,4.1990933E-1,9.1767883E-1,0E0,0E0,0E0,0E0,0E0,0E0,0E0,0E0,0E0,0E0,0E0,0E0,0E0,0E0,0E0,0E0],"parents":[2147483647,0,0,1,1,2,2,3,3,4,4,5,5,6,6,7,7,8,8,9,9,10,10,11,11,12,12,13,13,14,14],"right_children":[2,4,6,8,10,12,14,16,18,20,22,24,26,28,30,-1,-1,-1,-1,-1,-1,-1,-1,-1,-1,-1,-1,-1,-1,-1,-1],"split_conditions":[5.242092E0,4.985188E-2,8.031129E0,9.267802E-1,1.8045807E-1,7.142321E-1,1.5E0,0E0,1.0538096E0,1.5484892E0,7.117466E-1,-1.0884469E0,9.623207E-1,1.3165402E0,1.4739777E0,-1.7552917E-1,6.538298E-2,1.885759E-1,2.4541097E-2,-1.8202662E-1,-1.954058E-2,9.951354E-2,-7.84143E-3,9.233839E-2,-1.58278E-1,1.4377189E-1,-1.412225E-1,-8.132488E-2,1.13596775E-1,-1.5850592E-1,-9.807085E-2],"split_indices":[21,26,21,22,22,22,20,20,25,27,29,4,2,17,29,0,0,0,0,0,0,0,0,0,0,0,0,0,0,0,0],"split_type":[0,0,0,0,0,0,0,0,0,0,0,0,0,0,0,0,0,0,0,0,0,0,0,0,0,0,0,0,0,0,0],"sum_hessian":[1.839407E3,1.3642922E3,4.7511484E2,4.4390094E2,9.203913E2,7.4850174E1,4.0026465E2,1.942003E2,2.4970062E2,5.8917755E1,8.614735E2,4.4240864E1,3.0609312E1,2.0810652E0,3.981836E2,1.6446589E1,1.7775372E2,2.228031E2,2.6897516E1,5.4219513E1,4.698241E0,2.986779E2,5.6279565E2,3.2090213E0,4.103184E1,1.8359287E1,1.2250026E1,8.829845E-1,1.1980805E0,3.6758896E2,3.0594648E1],"tree_param":{"num_deleted":"0","num_feature":"40","num_nodes":"31","size_leaf_vector":"0"}},{"base_weights":[-1.1122627E-3,1.5970512E-1,-4.730416E-1,3.8453642E-1,5.6527134E-2,-2.3626526E-1,-5.1324695E-1,1.6250922E-1,5.650773E-1,-5.788763E-1,9.562636E-2,-4.3724844E-1,4.1666E-2,1.24279395E-1,-5.184941E-1,2.6706773E-1,-3.9311868E-1,6.087199E-1,2.937484E-2,-6.0048896E-1,5.235567E-2,2.1448549E-2,3.7636492E-1,3.0206093E-1,-5.2472764E-1,4.5611382E-1,-4.6809193E-1,-3.1507292E-1,4.287444E-1,-5.282693E-1,-3.8210234E-1],"categories":[],"categories_nodes":[],"categories_segments":[],"categories_sizes":[],"default_left":[true,true,true,true,true,true,true,true,true,true,true,true,true,true,true,false,false,false,false,false,false,false,false,false,false,false,false,false,false,false,false],"id":35,"left_children":[1,3,5,7,9,11,13,15,17,19,21,23,25,27,29,-1,-1,-1,-1,-1,-1,-1,-1,-1,-1,-1,-1,-1,-1,-1,-1],"loss_changes":[1.4057303E2,3.202505E1,4.360176E0,1.7320267E1,2.3609451E1,3.9387476E0,1.4077682E0,1.1503998E1,5.5737534E0,7.831459E-1,1.8608849E1,2.7983832E0,6.629153E0,6.8149805E-1,3.29422E-1,0E0,0E0,0E0,0E0,0E0,0E0,0E0,0E0,0E0,0E0,0E0,0E0,0E0,0E0,0E0,0E0],"parents":[2147483647,0,0,1,1,2,2,3,3,4,4,5,5,6,6,7,7,8,8,9,9,10,10,11,11,12,12,13,13,14,14],"right_children":[2,4,6,8,10,12,14,16,18,20,22,24,26,28,30,-1,-1,-1,-1,-1,-1,-1,-1,-1,-1,-1,-1,-1,-1,-1,-1],"split_conditions":[5.5210094E0,4.9278557E-2,8.031129E0,9.267802E-1,1.8045807E-1,7.142321E-1,1.5E0,6.3631415E-2,1.1503181E0,4.174161E-1,3.1511707E1,3.216989E0,8.521917E-1,1.767767E1,1.4739777E0,8.0120325E-2,-1.17935605E-1,1.8261597E-1,8.812453E-3,-1.801467E-1,1.5706701E-2,6.434565E-3,1.1290948E-1,9.061828E-2,-1.574183E-1,1.3683414E-1,-1.4042759E-1,-9.452188E-2,1.2862332E-1,-1.584808E-1,-1.1463071E-1],"split_indices":[31,36,31,32,32,32,30,38,35,26,21,30,22,31,39,0,0,0,0,0,0,0,0,0,0,0,0,0,0,0,0],"split_type":[0,0,0,0,0,0,0,0,0,0,0,0,0,0,0,0,0,0,0,0,0,0,0,0,0,0,0,0,0,0,0],"sum_hessian":[1.8502224E3,1.3804678E3,4.6975464E2,4.3337958E2,9.4708813E2,6.918553E1,4.0056912E2,1.9521115E2,2.3816841E2,5.410006E1,8.929881E2,3.9818184E1,2.9367344E1,3.084794E0,3.974843E2,1.6473125E2,3.0479916E1,2.2010094E2,1.8067482E1,5.235615E1,1.7439083E0,7.072043E2,1.857838E2,3.953467E0,3.5864716E1,1.6255991E1,1.3111353E1,1.2484301E0,1.8363639E0,3.682209E2,2.926342E1],"tree_param":{"num_deleted":"0","num_feature":"40","num_nodes":"31","size_leaf_vector":"0"}},{"base_weights":[2.5278464E-4,1.2908413E-1,-4.8835564E-1,3.0961257E-1,1.3223628E-2,-5.2087283E-1,-3.562419E-1,-2.5112936E-1,3.572745E-1,-4.4030747E-1,5.98719E-2,2.654369E0,-4.100933E-1,-5.910819E-1,3.469116E-2,3.9543605E-1,-1.5396726E-1,-4.8900923E-1,3.1987366E-1,2.3968743E-1,-5.760119E-2,3.680078E-2,-5.163758E-1],"categories":[],"categories_nodes":[],"categories_segments":[],"categories_sizes":[],"default_left":[true,true,true,true,true,false,true,true,true,true,true,false,true,false,false,false,false,false,false,false,false,false,false],"id":36,"left_children":[1,3,5,7,9,-1,11,13,15,17,19,-1,21,-1,-1,-1,-1,-1,-1,-1,-1,-1,-1],"loss_changes":[1.0718677E2,2.8180096E1,1.3407745E0,1.4166271E1,1.7412504E1,0E0,1.2978789E1,4.0867186E0,9.539692E0,2.9983292E0,1.5772499E1,0E0,3.4823494E0,0E0,0E0,0E0,0E0,0E0,0E0,0E0,0E0,0E0,0E0],"parents":[2147483647,0,0,1,1,2,2,3,3,4,4,6,6,7,7,8,8,9,9,10,10,12,12],"right_children":[2,4,6,8,10,-1,12,14,16,18,20,-1,22,-1,-1,-1,-1,-1,-1,-1,-1,-1,-1],"split_conditions":[5.242092E0,5.8410622E-2,1.2417412E0,1.7071068E0,5.6870043E-1,-1.5626186E-1,1.2438266E0,6.1885965E-1,1.2220086E0,4.305102E1,5.310314E-1,7.963108E-1,8.031129E0,-1.7732458E-1,1.0407348E-2,1.1863082E-1,-4.619018E-2,-1.4670278E-1,9.59621E-2,7.190623E-2,-1.7280359E-2,1.1040234E-2,-1.5491274E-1],"split_indices":[0,6,7,1,3,0,7,7,5,20,5,0,1,0,0,0,0,0,0,0,0,0,0],"split_type":[0,0,0,0,0,0,0,0,0,0,0,0,0,0,0,0,0,0,0,0,0,0,0],"sum_hessian":[1.700779E3,1.3464868E3,3.5429227E2,5.256974E2,8.207894E2,2.819525E2,7.233975E1,4.0848354E1,4.8484903E2,7.576232E1,7.450271E2,4.2261177E-1,7.191714E1,1.8169584E1,2.267877E1,4.5138223E2,3.3466816E1,7.153602E1,4.226306E0,2.939851E2,4.5104202E2,1.3943132E1,5.7974003E1],"tree_param":{"num_deleted":"0","num_feature":"40","num_nodes":"23","size_leaf_vector":"0"}},{"base_weights":[1.3658844E-3,1.255847E-1,-4.9427164E-1,3.4407124E-1,3.0369679E-2,1.3569632E-1,-4.9972138E-1,1.297258E-1,5.306164E-1,-4.549123E-1,8.560481E-2,-2.8291035E-1,4.0245587E-1,-5.077337E-1,-1.0256829E-1,-5.715961E-1,1.8940951E-1,5.898966E-1,5.7307944E-2,-4.8647037E-1,4.4035137E-1,2.9455632E-1,-6.3738646E-3,-5.2432275E-1,-2.9956424E-1,5.276577E-1,-4.4130182E-1],"categories":[],"categories_nodes":[],"categories_segments":[],"categories_sizes":[],"default_left":[true,true,true,true,true,true,true,true,true,true,true,false,false,true,true,false,false,false,false,false,false,false,false,false,false,false,false],"id":37,"left_children":[1,3,5,7,9,11,13,15,17,19,21,-1,-1,23,25,-1,-1,-1,-1,-1,-1,-1,-1,-1,-1,-1,-1],"loss_changes":[1.05640495E2,2.853122E1,1.2483215E0,1.6578136E1,2.5681715E1,5.309996E-1,1.0334091E0,8.272686E0,6.202793E0,2.9806843E0,1.6525229E1,0E0,0E0,9.9676514E-1,1.9404591E0,0E0,0E0,0E0,0E0,0E0,0E0,0E0,0E0,0E0,0E0,0E0,0E0],"parents":[2147483647,0,0,1,1,2,2,3,3,4,4,5,5,6,6,7,7,8,8,9,9,10,10,13,13,14,14],"right_children":[2,4,6,8,10,12,14,16,18,20,22,-1,-1,24,26,-1,-1,-1,-1,-1,-1,-1,-1,-1,-1,-1,-1],"split_conditions":[7.141085E0,4.9278557E-2,1.5E0,9.267802E-1,5.280322E-1,1.767767E1,1.5448933E0,0E0,1.0538096E0,7.9292154E-1,5.690683E-1,-8.487311E-2,1.2073676E-1,1.4760859E0,1.5466053E0,-1.7147884E-1,5.6822855E-2,1.7696899E-1,1.7192384E-2,-1.4594112E-1,1.3210541E-1,8.8366896E-2,-1.9121595E-3,-1.5729684E-1,-8.9869276E-2,1.5829732E-1,-1.3239056E-1],"split_indices":[11,16,10,12,13,11,17,10,15,12,19,0,0,19,17,0,0,0,0,0,0,0,0,0,0,0,0],"split_type":[0,0,0,0,0,0,0,0,0,0,0,0,0,0,0,0,0,0,0,0,0,0,0,0,0,0,0],"sum_hessian":[1.7138398E3,1.3709845E3,3.4285544E2,4.1532935E2,9.556551E2,2.735566E0,3.4011987E2,1.940528E2,2.2127655E2,9.691841E1,8.587367E2,1.041177E0,1.6943889E0,3.3312094E2,6.9989395E0,1.4546385E1,1.7950642E2,1.9642828E2,2.4848272E1,9.405943E1,2.858978E0,2.6179788E2,5.969388E2,3.071272E2,2.5993734E1,2.251747E0,4.747193E0],"tree_param":{"num_deleted":"0","num_feature":"40","num_nodes":"27","size_leaf_vector":"0"}},{"base_weights":[5.3848134E-6,1.7098562E-1,-3.802778E-1,2.7025345E-1,-2.892713E-2,-1.8469495E-1,-5.049058E-1,2.9643148E-1,-3.874749E-1,-9.713131E-2,3.800601E-1,-3.4781152E-1,2.0795009E-1,-5.231831E-1,-2.823205E-1,-5.6129E-1,3.1495178E-1,-5.653046E-1,2.9208237E-1,-3.47713E-2,-5.579117E-1,8.060918E-1,5.2205507E-2,-1.7635302E-1,-5.986205E-1,3.6609524E-1,-5.5901736E-1,3.2949553E0,-5.088545E-1],"categories":[],"categories_nodes":[],"categories_segments":[],"categories_sizes":[],"default_left":[true,true,true,true,true,true,true,true,true,true,true,true,true,false,true,false,false,false,false,false,false,false,false,false,false,false,false,false,false],"id":38,"left_children":[1,3,5,7,9,11,13,15,17,19,21,23,25,-1,27,-1,-1,-1,-1,-1,-1,-1,-1,-1,-1,-1,-1,-1,-1],"loss_changes":[1.09822205E2,2.3130276E1,1.267614E1,1.3521809E1,1.0846138E1,1.3232065E1,1.1516953E0,1.2081482E1,3.8192744E0,9.546618E0,7.7223253E0,6.153082E0,7.595175E0,0E0,2.3077827E1,0E0,0E0,0E0,0E0,0E0,0E0,0E0,0E0,0E0,0E0,0E0,0E0,0E0,0E0],"parents":[2147483647,0,0,1,1,2,2,3,3,4,4,5,5,6,6,7,7,8,8,9,9,10,10,11,11,12,12,14,14],"right_children":[2,4,6,8,10,12,14,16,18,20,22,24,26,-1,28,-1,-1,-1,-1,-1,-1,-1,-1,-1,-1,-1,-1,-1,-1],"split_conditions":[3.3839145E0,9.558185E-2,8.031129E0,1.4625525E0,4.337723E0,3.7436588E0,1.4739777E0,5.563532E-3,3.6641518E1,1.9602027E0,2.118034E0,7.202238E-1,1.8088317E-1,-1.5695494E-1,1.4771006E0,-1.6838701E-1,9.4485536E-2,-1.6959138E-1,8.7624714E-2,-1.043139E-2,-1.6737351E-1,2.4182755E-1,1.5661653E-2,-5.290591E-2,-1.7958614E-1,1.0982858E-1,-1.6770521E-1,9.884866E-1,-1.5265636E-1],"split_indices":[20,26,21,25,24,24,29,27,11,22,20,25,26,0,29,0,0,0,0,0,0,0,0,0,0,0,0,0,0],"split_type":[0,0,0,0,0,0,0,0,0,0,0,0,0,0,0,0,0,0,0,0,0,0,0,0,0,0,0,0,0],"sum_hessian":[1.6870288E3,1.1641584E3,5.228703E2,7.7765674E2,3.8650174E2,2.0447029E2,3.1840002E2,7.4841846E2,2.9238274E1,3.319132E2,5.458853E1,1.4453873E2,5.9931557E1,2.9299106E2,2.5408993E1,1.5199181E1,7.332193E2,2.3307253E1,5.9310217E0,2.9329535E2,3.8617855E1,2.3105427E1,3.1483105E1,8.686147E1,5.7677258E1,5.0119766E1,9.811792E0,7.065492E-1,2.4702444E1],"tree_param":{"num_deleted":"0","num_feature":"40","num_nodes":"29","size_leaf_vector":"0"}},{"base_weights":[-1.6365235E-3,1.2992676E-1,-4.883623E-1,2.803659E-1,6.092628E-4,-3.2994696E-1,-5.107511E-1,-3.570557E-1,3.2927266E-1,-1.9774157E-1,1.4547506E-1,-5.150821E-1,4.0350887E-3,-5.230558E-1,-3.4842995E-1,-4.0256955E-2,-6.7401594E-1,3.7137917E-1,-2.1319598E-1,-2.687853E-1,2.566185E-1,2.623336E-1,-2.295521E-1,-5.5751634E-1,4.0127125E-1,2.5498216E0,-5.066054E-1],"categories":[],"categories_nodes":[],"categories_segments":[],"categories_sizes":[],"default_left":[true,true,true,true,true,true,true,true,true,true,true,false,true,false,true,false,false,false,false,false,false,false,false,false,false,false,false],"id":39,"left_children":[1,3,5,7,9,11,13,15,17,19,21,-1,23,-1,25,-1,-1,-1,-1,-1,-1,-1,-1,-1,-1,-1,-1],"loss_changes":[1.0890282E2,2.604542E1,1.1149673E0,1.9409996E1,2.074451E1,2.9474926E0,4.473877E-1,4.449129E0,1.3219418E1,9.905205E0,1.8345001E1,0E0,4.2346735E0,0E0,1.2848042E1,0E0,0E0,0E0,0E0,0E0,0E0,0E0,0E0,0E0,0E0,0E0,0E0],"parents":[2147483647,0,0,1,1,2,2,3,3,4,4,5,5,6,6,7,7,8,8,9,9,10,10,12,12,14,14],"right_children":[2,4,6,8,10,12,14,16,18,20,22,-1,24,-1,26,-1,-1,-1,-1,-1,-1,-1,-1,-1,-1,-1,-1],"split_conditions":[5.242092E0,6.7416795E-2,8.031129E0,1.7071068E0,1.2236995E0,7.618822E-1,1.4739777E0,-9.8117894E-1,1.2679365E0,3.6062447E1,1.9881332E0,-1.5452464E-1,8.394148E-1,-1.5691674E-1,1.4771006E0,-1.2077087E-2,-2.022048E-1,1.11413755E-1,-6.3958794E-2,-8.063559E-2,7.698555E-2,7.870008E-2,-6.8865635E-2,-1.6725491E-1,1.2038138E-1,7.649465E-1,-1.5198162E-1],"split_indices":[30,36,31,31,33,32,39,2,35,21,32,0,39,0,39,0,0,0,0,0,0,0,0,0,0,0,0],"split_type":[0,0,0,0,0,0,0,0,0,0,0,0,0,0,0,0,0,0,0,0,0,0,0,0,0,0,0],"sum_hessian":[1.6986793E3,1.3378011E3,3.6087814E2,6.178585E2,7.1994257E2,4.6635883E1,3.1424225E2,4.3578697E1,5.7427985E2,3.0372125E2,4.1622134E2,2.9655052E1,1.6980833E1,2.9003397E2,2.4208277E1,2.235855E1,2.1220148E1,5.332075E2,4.107229E1,2.6300604E2,4.0715195E1,3.175677E2,9.865368E1,6.8681746E0,1.01126585E1,4.703235E-1,2.3737953E1],"tree_param":{"num_deleted":"0","num_feature":"40","num_nodes":"27","size_leaf_vector":"0"}},{"base_weights":[1.5502027E-4,1.10992804E-1,-4.93003E-1,1.7278638E-1,-1.9217779E-1,1.3249567E-1,-4.989711E-1,2.4342829E-1,-5.4914005E-2,6.977244E-2,-3.037292E-1,-2.6586157E-1,3.8213092E-1,-5.0727355E-1,-7.4007206E-2,9.688927E-2,3.5332367E-1,5.603048E-1,-1.104758E-1,1.0283198E0,-2.715305E-1,-3.5085678E-1,3.0591732E-1,-5.21285E-1,-3.1042504E-1,4.6804002E-1,-4.1338953E-1],"categories":[],"categories_nodes":[],"categories_segments":[],"categories_sizes":[],"default_left":[true,true,true,true,true,true,true,true,true,true,true,false,false,true,true,false,false,false,false,false,false,false,false,false,false,false,false],"id":40,"left_children":[1,3,5,7,9,11,13,15,17,19,21,-1,-1,23,25,-1,-1,-1,-1,-1,-1,-1,-1,-1,-1,-1,-1],"loss_changes":[8.588389E1,2.4066868E1,1.1424637E0,1.7163485E1,6.382143E0,4.5116374E-1,9.7088623E-1,1.3073296E1,8.719464E0,2.1815105E1,4.499098E0,0E0,0E0,6.1091614E-1,1.4164116E0,0E0,0E0,0E0,0E0,0E0,0E0,0E0,0E0,0E0,0E0,0E0,0E0],"parents":[2147483647,0,0,1,1,2,2,3,3,4,4,5,5,6,6,7,7,8,8,9,9,10,10,13,13,14,14],"right_children":[2,4,6,8,10,12,14,16,18,20,22,-1,-1,24,26,-1,-1,-1,-1,-1,-1,-1,-1,-1,-1,-1,-1],"split_conditions":[7.141085E0,1.5568627E-1,1.5E0,5.7020646E-2,2.118034E0,1.767767E1,1.5448933E0,1.205522E0,5.3933895E-1,9.9307036E-1,4.005617E1,-7.975847E-2,1.1463928E-1,1.4760859E0,1.5466053E0,2.9066782E-2,1.0599711E-1,1.6809145E-1,-3.314274E-2,3.0849597E-1,-8.145916E-2,-1.0525704E-1,9.17752E-2,-1.5638551E-1,-9.312752E-2,1.4041202E-1,-1.24016866E-1],"split_indices":[1,6,0,8,0,1,7,3,9,2,11,0,0,9,7,0,0,0,0,0,0,0,0,0,0,0,0],"split_type":[0,0,0,0,0,0,0,0,0,0,0,0,0,0,0,0,0,0,0,0,0,0,0,0,0,0,0],"sum_hessian":[1.5692216E3,1.2818904E3,2.8733127E2,1.0652054E3,2.1668486E2,2.5152428E0,2.84816E2,8.1293195E2,2.5227356E2,6.4827774E1,1.5185709E2,9.439415E-1,1.5713015E0,2.7916827E2,5.6477523E0,3.4918967E2,4.6374225E2,2.014374E1,2.321298E2,1.6493355E1,4.833442E1,1.4135443E2,1.0502652E1,2.5907916E2,2.0089088E1,2.0286245E0,3.6191275E0],"tree_param":{"num_deleted":"0","num_feature":"40","num_nodes":"27","size_leaf_vector":"0"}},{"base_weights":[1.5331499E-3,1.13995105E-1,-4.7259727E-1,3.179648E-1,2.6426336E-2,-5.101039E-1,-3.3099967E-1,-2.2259682E-1,3.7905455E-1,-4.411027E-1,6.5349266E-2,-3.386164E-1,-5.205623E-1,1.3533103E0,-4.1226235E-1,-5.837161E-1,5.94956E-2,4.694351E-1,1.3593665E-1,-4.8601148E-1,1.6986266E-1,2.3059277E-1,-2.9506173E-2,-5.057234E-1,1.4391859E-1,-3.2385923E-2,-5.124745E-1],"categories":[],"categories_nodes":[],"categories_segments":[],"categories_sizes":[],"default_left":[true,true,true,true,true,true,true,true,true,true,true,true,false,false,true,false,false,false,false,false,false,false,false,false,false,false,false],"id":41,"left_children":[1,3,5,7,9,11,13,15,17,19,21,23,-1,-1,25,-1,-1,-1,-1,-1,-1,-1,-1,-1,-1,-1,-1],"loss_changes":[8.448018E1,2.286464E1,1.4443436E0,1.2783497E1,1.6352629E1,2.5111008E-1,9.6541E0,4.07655E0,7.5362473E0,1.977664E0,1.3000139E1,1.4079814E0,0E0,0E0,2.4260693E0,0E0,0E0,0E0,0E0,0E0,0E0,0E0,0E0,0E0,0E0,0E0,0E0],"parents":[2147483647,0,0,1,1,2,2,3,3,4,4,5,5,6,6,7,7,8,8,9,9,10,10,11,11,14,14],"right_children":[2,4,6,8,10,12,14,16,18,20,22,24,-1,-1,26,-1,-1,-1,-1,-1,-1,-1,-1,-1,-1,-1,-1],"split_conditions":[5.242092E0,4.985188E-2,1.2417412E0,1.7071068E0,4.8706537E-1,6.36384E0,1.2438266E0,6.1885965E-1,2.9142137E0,3.6557835E1,7.117466E-1,6.203659E0,-1.561687E-1,4.0599313E-1,8.031129E0,-1.7511484E-1,1.7848682E-2,1.4083053E-1,4.0780995E-2,-1.4580345E-1,5.09588E-2,6.9177836E-2,-8.851852E-3,-1.5171704E-1,4.3175578E-2,-9.715777E-3,-1.5374234E-1],"split_indices":[10,16,17,11,13,11,17,17,10,20,19,10,0,0,11,0,0,0,0,0,0,0,0,0,0,0,0],"split_type":[0,0,0,0,0,0,0,0,0,0,0,0,0,0,0,0,0,0,0,0,0,0,0,0,0,0,0],"sum_hessian":[1.5823405E3,1.2795869E3,3.0275363E2,3.8355646E2,8.960304E2,2.3729584E2,6.54578E1,3.8676655E1,3.448798E2,6.8069534E1,8.279609E2,1.555855E1,2.2173729E2,2.2923036E0,6.3165497E1,1.6493431E1,2.2183224E1,2.507362E2,9.41436E1,6.359922E1,4.4703135E0,3.0142703E2,5.265338E2,1.152074E1,4.03781E0,1.3461156E1,4.970434E1],"tree_param":{"num_deleted":"0","num_feature":"40","num_nodes":"27","size_leaf_vector":"0"}},{"base_weights":[-1.8590457E-4,1.230308E-1,-4.4840607E-1,3.1944323E-1,3.4496408E-2,-2.103482E-1,-4.9511564E-1,9.877474E-2,5.180575E-1,-4.73186E-1,7.871518E-2,2.0910019E-2,-4.8896232E-1,-5.1531947E-1,-2.6238194E-1,2.0251955E-1,-4.157365E-1,5.830044E-1,2.8913965E-2,-5.434273E-1,1.9740827E-1,2.9445985E-1,-1.4940121E-2,-3.612946E-1,5.129639E-1,-5.2145904E-1,2.3897849E-1,8.674551E-2,-5.1981086E-1,1.9878054E0,-5.025268E-1],"categories":[],"categories_nodes":[],"categories_segments":[],"categories_sizes":[],"default_left":[true,true,true,true,true,true,true,true,true,true,true,true,true,true,true,false,false,false,false,false,false,false,false,false,false,false,false,false,false,false,false],"id":42,"left_children":[1,3,5,7,9,11,13,15,17,19,21,23,25,27,29,-1,-1,-1,-1,-1,-1,-1,-1,-1,-1,-1,-1,-1,-1,-1,-1],"loss_changes":[8.605422E1,2.124176E1,3.6317978E0,1.6586605E1,1.8974472E1,3.673066E0,1.1819992E0,9.748776E0,6.3227158E0,3.2975712E0,1.5700808E1,6.2077713E0,7.355304E-1,7.392807E-1,1.4191153E1,0E0,0E0,0E0,0E0,0E0,0E0,0E0,0E0,0E0,0E0,0E0,0E0,0E0,0E0,0E0,0E0],"parents":[2147483647,0,0,1,1,2,2,3,3,4,4,5,5,6,6,7,7,8,8,9,9,10,10,11,11,12,12,13,13,14,14],"right_children":[2,4,6,8,10,12,14,16,18,20,22,24,26,28,30,-1,-1,-1,-1,-1,-1,-1,-1,-1,-1,-1,-1,-1,-1,-1,-1],"split_conditions":[5.5210094E0,4.985188E-2,8.031129E0,9.267802E-1,5.280322E-1,7.74172E-1,1.4739777E0,6.3631415E-2,1.0538096E0,3.6557835E1,5.690683E-1,7.142321E-1,6.1800804E1,1.5E0,1.4771006E0,6.0755868E-2,-1.2472095E-1,1.7490134E-1,8.67419E-3,-1.630282E-1,5.9222486E-2,8.833796E-2,-4.4820365E-3,-1.0838839E-1,1.5388918E-1,-1.5643772E-1,7.169355E-2,2.6023654E-2,-1.5594326E-1,5.963416E-1,-1.5075806E-1],"split_indices":[21,26,21,22,23,12,29,28,25,30,29,22,10,20,29,0,0,0,0,0,0,0,0,0,0,0,0,0,0,0,0],"split_type":[0,0,0,0,0,0,0,0,0,0,0,0,0,0,0,0,0,0,0,0,0,0,0,0,0,0,0,0,0,0,0],"sum_hessian":[1.5561581E3,1.2211788E3,3.3497922E2,3.7861597E2,8.4256287E2,5.5848347E1,2.7913086E2,1.8005971E2,1.9855624E2,6.672958E1,7.758333E2,3.1023142E1,2.4825207E1,2.5571758E2,2.3413279E1,1.503499E2,2.9709806E1,1.7511339E2,2.3442862E1,6.0574364E1,6.155219E0,2.3419556E2,5.4163776E2,1.7610142E1,1.3412999E1,2.403585E1,7.8935647E-1,1.7579063E0,2.5395967E2,1.5559845E0,2.1857294E1],"tree_param":{"num_deleted":"0","num_feature":"40","num_nodes":"31","size_leaf_vector":"0"}},{"base_weights":[-1.5175181E-3,1.21357396E-1,-4.525138E-1,2.0078847E-1,-1.0309705E-1,-2.0665485E-1,-5.001443E-1,1.3533634E-1,5.0972605E-1,-4.5940822E-1,-1.5966313E-2,4.5623362E-2,-4.487083E-1,8.7840274E-2,-5.060544E-1,2.7648008E-1,-1.2322393E-2,6.1002964E-1,-3.725397E-1,-5.431964E-1,8.577781E-3,5.244746E-1,-1.04516074E-1,-4.65305E-1,2.7403638E-1,-5.13344E-1,3.2943225E-1,-2.9493687E-1,3.7381738E-1,-5.199617E-1,-3.2649288E-1],"categories":[],"categories_nodes":[],"categories_segments":[],"categories_sizes":[],"default_left":[true,true,true,true,true,true,true,true,true,true,true,true,true,true,true,false,false,false,false,false,false,false,false,false,false,false,false,false,false,false,false],"id":43,"left_children":[1,3,5,7,9,11,13,15,17,19,21,23,25,27,29,-1,-1,-1,-1,-1,-1,-1,-1,-1,-1,-1,-1,-1,-1,-1,-1],"loss_changes":[8.701954E1,2.2022648E1,3.8339462E0,1.8369148E1,1.0027551E1,3.4565854E0,1.0207825E0,1.5713367E1,1.430238E1,2.4936056E0,1.2533501E1,3.4489546E0,1.6180902E0,5.09583E-1,5.252304E-1,0E0,0E0,0E0,0E0,0E0,0E0,0E0,0E0,0E0,0E0,0E0,0E0,0E0,0E0,0E0,0E0],"parents":[2147483647,0,0,1,1,2,2,3,3,4,4,5,5,6,6,7,7,8,8,9,9,10,10,11,11,12,12,13,13,14,14],"right_children":[2,4,6,8,10,12,14,16,18,20,22,24,26,28,30,-1,-1,-1,-1,-1,-1,-1,-1,-1,-1,-1,-1,-1,-1,-1,-1],"split_conditions":[5.5210094E0,8.9529437E-1,8.031129E0,3.967546E0,7.7494055E-1,9.690598E-2,1.5E0,6.5666795E-2,1.8890622E-1,2.6881222E1,2.9335076E-1,-3.3449233E-2,4.7438675E1,1.767767E1,1.4739777E0,8.294403E-2,-3.696718E-3,1.830089E-1,-1.1176191E-1,-1.6295892E-1,2.5733344E-3,1.5734239E-1,-3.1354822E-2,-1.395915E-1,8.221091E-2,-1.540032E-1,9.882968E-2,-8.848106E-2,1.1214522E-1,-1.5598851E-1,-9.7947866E-2],"split_indices":[31,35,31,34,32,36,30,36,36,20,39,32,0,31,39,0,0,0,0,0,0,0,0,0,0,0,0,0,0,0,0],"split_type":[0,0,0,0,0,0,0,0,0,0,0,0,0,0,0,0,0,0,0,0,0,0,0,0,0,0,0,0,0,0,0],"sum_hessian":[1.5683015E3,1.2330778E3,3.352238E2,9.1084784E2,3.2222995E2,5.5269947E1,2.7995383E2,7.527969E2,1.5805096E2,6.24746E1,2.5975534E2,2.7460737E1,2.7809212E1,2.648003E0,2.7730585E2,3.8444342E2,3.6835345E2,1.4219373E2,1.5857242E1,5.2851387E1,9.623216E0,3.587549E1,2.2387985E2,8.163343E0,1.9297394E1,2.5990614E1,1.8185979E0,1.1189588E0,1.5290444E0,2.556125E2,2.1693333E1],"tree_param":{"num_deleted":"0","num_feature":"40","num_nodes":"31","size_leaf_vector":"0"}},{"base_weights":[-7.7318815E-5,9.7089395E-2,-4.8686332E-1,2.924927E-1,1.4182537E-2,1.0661305E-1,-4.9295005E-1,9.982025E-2,4.7561333E-1,-5.026053E-1,5.498489E-2,-2.5776407E-1,3.50933E-1,-5.014507E-1,-7.648677E-2,1.981855E-1,-3.7193862E-1,5.4147446E-1,-1.4349442E-3,-5.381007E-1,2.0456101E-1,-1.2118802E-3,3.5645148E-1,-5.1803094E-1,-2.8227323E-1,4.270876E-1,-3.9904398E-1],"categories":[],"categories_nodes":[],"categories_segments":[],"categories_sizes":[],"default_left":[true,true,true,true,true,true,true,true,true,true,true,false,false,true,true,false,false,false,false,false,false,false,false,false,false,false,false],"id":44,"left_children":[1,3,5,7,9,11,13,15,17,19,21,-1,-1,23,25,-1,-1,-1,-1,-1,-1,-1,-1,-1,-1,-1,-1],"loss_changes":[6.917215E1,1.9745468E1,9.315872E-1,1.276384E1,1.8098112E1,3.8357788E-1,8.1500626E-1,8.343275E0,5.841671E0,1.6866617E0,1.3471821E1,0E0,0E0,7.1157074E-1,1.145297E0,0E0,0E0,0E0,0E0,0E0,0E0,0E0,0E0,0E0,0E0,0E0,0E0],"parents":[2147483647,0,0,1,1,2,2,3,3,4,4,5,5,6,6,7,7,8,8,9,9,10,10,13,13,14,14],"right_children":[2,4,6,8,10,